abundante -0.211517 -0.237667 0.771846 -0.131013 0.339362 0.375048 -0.024238 0.162346 0.863814 0.608134 -0.611985 -0.215513 0.131321 -0.649085 0.617971 0.615981 0.982577 0.317938 1.068102 0.614578 0.033351 -0.066965 0.447028 -0.236730 0.020656 0.515662 -0.170227 -0.298640 -0.066628 -0.061780 -0.414831 -0.070276 0.205210 -0.718296 0.687347 0.565194 0.327474 0.572615 -0.347440 0.129689 -0.251178 -0.293175 -0.087991 0.423337 0.389668 -0.540308 0.851051 -0.566512 0.105585 -0.359643 -0.694630 0.080530 -0.348747 0.223079 -0.265297 -0.636240 0.485332 0.091867 -0.098275 0.133408 -0.049017 0.329719 0.535856 -0.412055 0.183974 -0.359557 0.279082 -0.329495 -0.008917 -0.623452 0.720940 0.158696 0.005987 0.105432 0.632436 0.009861 -0.027665 -0.350917 1.068688 0.151389 1.297266 -0.144108 0.705552 0.450354 -0.178089 0.045148 -0.744957 0.813599 -1.035326 0.208651 -0.006233 -0.010492 0.091967 0.112308 0.407561 0.012489 -0.196983 0.152778 -0.045896 -0.174761
aburrido 0.335217 0.559447 0.462112 0.093845 -0.146748 -0.475957 -0.014564 -0.252975 0.088923 0.129136 0.655721 0.202652 -0.463997 -0.296900 -0.293713 -0.339530 -0.138085 -0.019428 -0.422715 0.291141 -0.332127 0.287543 0.050637 0.099713 -0.248422 0.584566 0.544229 0.265348 0.259298 -0.007425 0.439355 0.339127 0.100566 -0.265718 -0.264136 -0.165169 0.310303 0.530288 0.741661 -0.549822 0.224486 -0.188993 -0.397940 0.152937 -0.300362 -0.281425 -0.142703 0.397310 0.296037 -0.555602 -0.225924 -0.206682 -0.104550 0.205254 0.161354 0.627231 0.015582 -0.201977 0.486973 0.178790 0.333077 0.108875 0.003137 0.013595 0.335856 -0.777069 -0.211363 -0.057172 0.338627 -0.212363 -0.005032 0.408116 -0.127325 -0.018804 0.079270 -0.350838 1.103877 0.066904 0.708449 0.265435 0.186836 -0.152073 -0.048378 0.521265 0.111551 -0.548777 0.317414 0.164307 -0.430878 0.115468 -0.144938 -0.435924 0.280366 0.172965 0.120254 -0.029537 -0.336468 0.015524 -0.426000 0.144134
acabar -0.111352 0.491541 0.053234 -0.216549 -0.222681 -0.137975 -0.382960 -0.082329 0.025376 0.296710 0.402387 0.216665 0.195580 -0.301999 -0.034489 -0.175316 -0.071429 0.039002 -0.312919 -0.150241 0.113153 0.078378 0.167790 -0.027053 0.036061 0.094667 -0.061371 -0.014648 -0.339904 -0.300843 -0.317216 0.198964 -0.267480 -0.604202 -0.058788 0.432604 0.017396 -0.273698 -0.221298 0.097643 0.108540 -0.386440 -0.132844 0.678994 -0.240165 0.599049 -0.185192 0.279779 -0.294011 0.572499 -0.169798 0.221564 0.458826 -0.027628 -0.463676 0.268609 -0.332996 -0.379653 0.247656 0.025058 -0.252805 0.197420 -0.083464 0.707866 -0.261939 0.171736 -0.626296 -0.034039 -0.185405 0.320093 0.005890 -0.479253 0.384766 -0.716680 0.392475 -0.440884 0.363558 0.279163 -0.602006 0.008219 2.005221 0.252935 0.499602 -0.177736 0.318247 -0.927035 -0.084791 0.080367 -0.364972 -0.101726 -0.106473 -0.316832 0.119994 -0.203764 -0.408068 0.271958 0.079102 -0.740574 -0.500571 0.378672
aceptar 0.208426 -0.025720 0.213805 -0.273166 0.098027 0.383342 -0.576339 0.090670 -0.292063 0.364639 -0.283306 0.138861 0.409985 -0.095134 -0.271666 -0.311405 -0.221650 -0.056088 -0.114984 -0.164839 0.169840 1.018165 0.209791 -0.318328 -0.161500 0.444950 -0.354671 0.774578 0.094293 -0.104162 0.044140 -0.011966 -0.517699 0.598608 0.138256 0.662330 -0.158307 -0.108427 -0.250924 -0.142746 -0.101581 -0.032075 -0.162777 -0.199461 -0.358282 0.950958 0.240273 -0.161494 -0.269489 0.686973 -0.108553 0.329559 0.042963 0.178097 -0.531317 0.045453 -0.084761 -0.744281 0.439432 0.127318 -0.056063 -0.292924 0.004922 0.836389 -0.113266 -0.057454 0.406821 -0.413145 0.254808 -0.325375 -0.360697 -0.624351 0.045271 -0.022638 -0.556107 -0.894444 -0.191872 -0.240285 0.284556 -0.140356 1.857286 0.060420 -0.067412 -0.254215 0.276256 -1.131324 0.815218 -0.182476 -0.263718 -0.462977 0.151842 -0.761858 -0.531690 0.080229 -0.682991 -0.443157 -0.238525 -0.514405 0.281634 0.336503
acortar -0.394297 -0.365812 0.139795 -0.610609 0.190058 -0.554465 -0.300024 0.579718 -0.111515 -0.061629 -0.797511 0.507267 0.486535 0.814662 -0.361574 -0.236269 0.035594 0.453415 -0.571660 -0.377731 0.269405 0.017321 -0.467694 0.260551 -0.044416 0.077339 0.510734 -0.525339 -0.381633 0.454106 -0.128899 0.022422 0.417176 -0.145290 0.240864 0.208576 -0.177912 -0.061869 0.516002 -0.232005 0.069401 -0.319768 -0.337495 1.002856 -0.237148 0.625553 0.061535 -0.018695 0.440566 1.243579 0.120033 -0.112195 0.345013 -0.792103 -0.181899 -0.073538 0.012420 -0.165314 -0.384812 0.500466 0.048118 0.602094 0.068817 -0.125440 0.048787 0.058579 -0.441797 -0.314426 0.329601 -0.011352 -0.260994 -0.210672 0.126337 -0.867185 0.183274 -0.157848 0.715814 -0.157411 -0.062806 0.359416 0.287278 0.820042 -0.163405 -0.418875 0.215667 -0.047526 0.162987 0.081754 -0.763137 -0.205222 0.219609 -0.557055 -0.487725 -0.331090 -0.293750 -0.186936 0.490976 0.074443 -0.011990 0.347807
actual 0.029305 -0.644589 0.148126 -1.070034 -0.148940 0.593143 -0.083973 0.446626 -0.148394 0.651802 -0.506717 0.072135 0.220918 0.572414 0.541987 -0.001037 -0.377604 0.294085 -0.283779 0.165994 -0.106942 -0.095603 0.432790 0.046006 0.005391 -0.859028 -0.335295 -0.592146 -0.341028 0.404961 -0.453951 -0.022131 0.025483 0.148226 -0.745066 0.582968 -0.476269 -0.239781 -2.484239 -0.504893 0.617186 -0.214744 0.006836 -0.356095 -0.643823 -0.793224 -0.652730 -0.306139 -0.335561 -0.541827 1.192275 0.208578 -0.396879 -0.120673 -0.837191 -0.838313 -0.250606 0.376476 -0.886367 -0.276660 0.109412 -0.127828 -0.505917 0.049787 0.218715 0.154056 -0.203323 -0.243678 0.394338 -0.436464 -0.035537 -0.231224 -0.420907 0.221069 -0.480851 -0.244480 0.639471 0.018989 0.042159 0.143198 2.040527 -0.327027 -0.257462 -0.093692 -0.002502 0.541882 0.518436 0.253616 0.438856 -0.782694 -0.191526 0.104830 0.666451 -0.204709 -0.027562 -0.461491 -0.154863 0.161510 0.368438 0.017114
advertir 0.557725 0.650194 -0.002204 -0.315897 0.336620 -0.538247 -0.157505 0.294421 0.356464 0.222738 -0.374002 0.021126 0.243909 -0.111280 -0.329542 0.113696 0.309814 -0.367358 0.137185 -0.086377 -0.228999 0.629275 0.345531 0.175694 0.214542 0.287107 0.542694 -0.393948 -0.079161 -0.350780 -0.049141 0.065692 -0.189678 -0.254517 -0.558589 0.059651 -0.202603 -0.220510 0.237179 0.350870 -0.107872 -0.644373 -0.487171 -0.019146 -0.604488 0.546590 -0.561900 0.423816 -0.071653 0.078715 -0.522187 0.475045 -0.141307 0.142498 0.052687 0.189217 0.201426 -0.386157 0.438221 -0.024762 -0.157794 -0.321826 0.320161 0.570245 -0.214806 -0.088022 0.451345 0.075093 -0.162579 0.287840 -0.187868 -0.166414 -0.045372 -0.461612 0.265909 -0.397057 0.278895 -0.126643 0.559103 0.407609 1.316210 0.370618 0.494296 0.055897 -0.079871 0.139121 0.498318 -0.259513 0.164999 -0.522261 -0.513561 0.120753 -0.257844 0.126749 -0.483925 -0.991932 -0.353983 0.094520 0.114885 0.025489
alterado 0.046849 0.248037 -0.348356 -0.880707 -0.457228 -0.074070 -0.564338 -0.049788 0.298660 -0.331954 0.083238 -0.011673 -0.614901 0.575966 -0.201387 -0.141249 -0.598691 0.019139 0.445229 -0.096717 -0.438924 0.161906 -0.465219 0.515439 -0.093779 0.212433 0.123970 -0.163339 -0.282450 0.079229 0.473795 0.250422 0.101031 -0.129670 -0.235995 0.816841 0.572015 0.330733 0.148175 0.425417 0.132809 0.189476 -0.081593 0.247694 0.211088 -0.014285 0.273007 -0.272866 0.110121 -0.473068 -0.381611 -0.327260 -0.203892 -0.430973 0.650117 0.485455 -0.530203 0.007395 0.370700 0.633297 -0.052933 -0.206594 0.234466 -0.074061 0.346168 -0.199059 0.124074 0.165101 0.569983 -0.169068 0.007962 -0.255929 0.016299 -0.045715 0.191700 -0.480362 0.929736 0.067806 0.771584 -0.086677 0.505847 -0.071459 0.006206 -0.441178 0.355186 -0.449038 0.692713 0.774504 -0.355305 -0.442505 -0.055891 -0.057068 -0.095278 0.199378 0.460926 -0.225972 -0.056922 -0.183961 -0.162950 0.248524
altura 0.308167 -0.075353 -0.343333 -0.185082 0.276284 -0.900705 0.157190 0.418428 0.472470 0.397138 -0.392564 0.549253 -0.050725 -0.279754 -0.044344 -0.162808 -0.050126 1.099457 0.287884 -0.583185 -0.722985 0.292069 -0.522909 -0.395028 -0.040662 -0.783109 -0.028211 -0.258892 0.464530 -0.078008 -0.868350 -0.530982 0.984072 -0.524297 0.148260 -0.606276 -0.482979 -0.404114 -1.437413 0.438906 0.425429 -0.190511 -0.778574 0.515823 0.087921 -0.008562 -0.206969 0.042861 0.597905 -0.063434 1.321296 0.939042 -0.453325 0.664502 -0.119810 -0.564975 -0.585865 0.331303 0.442960 -0.262223 0.621187 -0.550223 0.312842 -1.430959 -0.309045 -1.464447 0.049394 0.071364 0.840767 -0.241306 0.590278 -0.283483 0.203467 0.450391 -0.062744 0.512970 0.958519 -0.281021 0.460477 -0.625922 2.162496 0.372723 -0.206687 -0.262008 0.000838 0.944361 -0.764623 -0.769792 -0.096527 -0.660667 -0.561567 0.370610 0.361172 0.183174 0.175382 -0.266419 -0.246184 -0.782226 -0.098235 0.041659
amplificar -0.060739 -0.755064 0.092873 0.272775 -0.081035 0.302375 0.085829 0.137388 0.213286 0.280721 0.326527 -0.018694 -0.442840 0.878575 -0.171756 0.044856 0.481327 -0.460944 -0.266702 -0.266262 0.437568 0.459756 0.232029 0.337509 -0.305205 0.292827 0.027108 -0.555045 0.241553 0.321736 -0.189731 -0.161705 -0.278077 -0.461311 0.310933 0.464466 -0.192262 0.142690 0.742884 0.357768 -0.188790 0.053056 0.056219 0.402792 -0.175657 0.980916 0.254132 0.139872 0.670688 0.693591 -0.247674 -0.145961 0.100986 -0.005819 -0.115384 0.439730 -0.133998 0.052423 -0.532026 0.697554 0.155034 -0.272152 -0.089565 0.513953 -0.953548 -0.258472 0.143521 -0.324233 -0.797741 -0.479495 0.615936 -0.525799 0.057826 0.221778 0.308577 -0.735001 0.518052 0.232825 -0.362195 -0.215167 0.130901 0.390793 -0.351362 -0.385334 -0.170715 0.211728 -0.386758 0.373131 -0.475352 -0.463944 -0.768820 -0.552747 -0.659298 -0.265565 -0.150121 -0.397543 0.376433 0.306479 0.510500 0.314296
angustia 0.629985 0.539173 0.267739 0.193509 -0.244372 -0.097110 -0.622848 -0.571139 0.176766 -0.400343 0.245291 -0.132526 -0.360890 -0.805570 0.028411 -0.485959 0.087968 0.199340 0.395375 -0.242770 0.044485 0.251721 -0.099709 -0.221092 -0.210832 -0.052324 0.565316 -0.330508 -0.110074 0.161688 -0.445795 0.522531 0.136547 -0.185197 0.719674 0.408615 -0.516211 0.570599 0.299105 0.058669 0.122616 0.105250 -0.812462 -0.265825 -0.419613 -0.097605 -0.234841 -0.373479 0.014697 -0.291034 -0.805127 0.077925 0.023462 0.469716 0.719099 0.662714 0.708234 0.770876 0.469045 0.217998 0.209209 -0.060129 -0.066892 -0.471444 -0.241741 0.116135 -0.326867 -0.276102 0.170740 0.412676 -0.512524 -0.300543 0.893308 -0.036509 -0.036408 0.237621 0.492243 0.961378 0.277547 0.428982 0.913275 0.500367 0.386511 -0.717688 0.461758 0.228794 0.265655 -0.084237 0.379758 -0.177070 -0.177773 0.215826 -0.616116 -0.583033 0.840588 -0.053329 -0.049222 0.015270 0.298743 0.313774
apto 0.027757 -0.060169 0.084057 -0.251061 -0.091735 0.558202 0.038927 0.154418 0.192701 0.356586 0.508645 -0.031816 -0.042365 -0.307509 0.213829 0.191938 0.693554 -0.074928 0.357118 -0.042854 -0.165669 -0.004219 0.304488 0.349841 0.041373 0.092162 0.610102 -0.341486 -0.010701 -0.068430 0.494711 0.254696 0.063666 -0.293975 -0.145903 0.736375 0.524886 0.562323 0.316800 0.458115 0.752370 -0.592972 0.184652 1.169021 -0.154674 0.417713 -0.300215 0.355821 0.288843 0.349109 -0.456841 -0.111131 -0.422582 0.065850 0.097911 -0.473619 0.209972 -0.369901 -0.034289 0.152818 0.590376 -0.139501 -0.134232 0.032743 -0.460100 -0.724252 0.327204 0.322714 -0.274471 -0.511259 0.172894 0.057059 -0.657783 -0.070535 -0.034850 -0.417945 0.151799 -0.172516 1.323807 0.592582 0.778207 0.134060 -0.129682 -0.120551 0.519150 0.112082 -0.356710 0.342590 -0.608453 -0.014595 0.212602 -0.611492 0.161135 0.170997 0.353689 -0.047556 0.627760 -0.060290 -0.702860 -0.353287
armonía -0.114542 0.649224 -0.920502 -0.263348 0.273491 0.429028 0.700398 0.270996 0.143203 0.159372 0.514802 -0.104986 -0.438961 0.646800 0.380991 -0.422490 -0.316039 -0.005196 0.903204 -0.027031 0.278492 -0.028117 -0.454269 0.142159 0.182936 -0.694662 0.551013 -0.455708 0.596619 0.402638 -0.367097 0.153416 -0.167327 -0.569090 -0.246512 0.110001 -0.081128 -0.885263 -1.441189 0.137268 -0.083299 -0.271272 -1.030144 -0.113930 0.212523 0.015172 -0.943028 -0.503060 0.160367 0.104215 0.250557 -0.453078 -0.240050 -0.471173 1.210432 0.418045 1.370369 0.526188 0.270302 -0.081757 0.350030 -0.797370 -0.305885 0.302372 -0.188503 -0.226844 -0.333774 0.601675 -0.096718 0.061540 0.212500 0.067418 0.579408 -0.077829 0.470924 1.058799 0.993369 0.594737 -0.038497 -0.161472 0.897072 -1.207734 1.254278 -0.183714 1.339860 -0.694744 -0.580703 -0.468823 -0.595981 0.871877 -0.301259 0.009759 0.080535 -0.701327 0.416647 -0.436866 1.094627 -0.131253 1.006453 0.991958
barato 0.062346 -0.207084 0.328792 0.243016 -0.234776 -0.090483 0.520327 0.093844 -0.348707 0.090576 0.115273 0.303036 -0.191201 -0.150336 -0.748781 -0.230976 0.410126 -0.077612 0.382265 0.239325 -0.319676 0.257958 0.210890 0.232729 -0.324588 0.193572 0.185991 -0.092768 0.143426 0.258566 -0.158594 -0.090610 -0.041464 -0.140950 0.128430 -0.217001 0.252728 0.143058 0.799950 -0.124119 0.661346 -0.289813 0.389948 0.553164 -0.094236 0.191318 0.873892 -0.145377 0.205970 -0.282013 -0.636169 -0.420009 0.057917 -0.006313 -0.149312 -0.865764 0.688194 -0.165095 -0.560171 -0.152348 0.090320 0.917336 0.481977 0.261584 -0.076143 -0.054761 0.088321 0.506434 -0.247735 -0.065372 0.593825 0.197945 -0.569607 0.487120 0.556731 -0.046479 -0.071684 -0.279366 0.764945 0.227172 0.576152 0.254649 -0.589641 -0.480847 0.189105 -0.176586 0.180404 0.705990 -1.207042 -0.402945 0.501925 -0.650578 -0.439625 -0.061534 -0.314457 -0.113555 0.028057 -0.060764 -0.204983 0.008915
batalla -0.557463 0.488868 0.390017 0.502482 0.555659 -0.779180 -0.475432 -0.107309 0.675639 -0.257168 0.116006 -0.380897 -0.965605 0.133806 0.905551 0.008760 -0.031796 0.772451 0.663338 -0.553042 -0.082880 -0.155190 -0.430559 0.104177 0.012163 -0.421582 0.454037 -0.089700 0.070207 -0.992039 -0.301001 -0.975349 -0.045234 0.048038 -0.109419 0.531092 -0.784974 -0.229804 -1.615933 -0.148885 0.350749 0.630088 -0.429789 0.662062 -0.560234 -0.470752 -0.177313 0.702895 -0.130982 0.113587 -0.725597 1.131329 0.461995 -0.727313 -0.984580 0.253646 -0.616428 -0.159954 0.315863 -0.519649 -0.474495 0.782342 -0.620161 0.427142 0.065936 -0.731208 -1.458508 -0.025173 -0.309536 -1.009453 -0.140634 -0.769946 0.307487 -0.194620 -0.063507 -0.839769 -0.321154 0.530709 -0.936213 -0.204639 2.187923 0.820360 0.970393 -0.592072 -1.021738 0.160873 -0.568600 -0.398287 0.575006 -0.020452 -0.376848 -0.498089 -0.420834 -0.598676 -0.083074 0.869164 -0.229942 -0.724707 -0.321258 -1.308932
bonito 0.004767 -0.367145 0.485192 -0.078111 0.066366 -0.067501 0.510892 0.160626 0.085956 0.234767 0.351964 0.184467 -0.056349 -0.179711 -0.355873 0.112695 -0.268258 0.274747 -0.078864 0.925895 0.150004 -0.018023 0.121378 0.155370 -0.157532 -0.044433 0.956640 0.049835 -0.208196 0.512088 0.116932 0.170510 0.149033 0.083588 -0.251542 -0.085978 0.245312 -0.073567 0.246093 -0.311258 0.150366 -0.685372 -0.232950 0.529000 -0.166248 0.117552 -0.358967 0.012358 -0.194897 -0.717598 -0.118579 0.041840 -0.009846 0.631893 0.400162 -0.410682 1.282904 -0.314418 0.203447 0.259593 0.745187 -0.244088 0.224441 0.218089 0.232478 -0.139927 -0.444738 -0.143030 -0.264212 -0.301285 0.116993 0.269355 -0.131471 0.075726 0.689996 -0.355735 0.498843 0.124694 1.337692 0.045196 0.270394 -0.012961 -0.372426 0.587143 -0.038408 -0.177317 0.149042 -0.042120 -0.820545 -0.451814 0.195842 -0.451354 -0.759524 0.146339 -0.236511 -0.285468 -0.371539 0.310293 -0.609879 -0.404756
cálido 0.426477 -1.089281 -0.477349 -0.405665 -0.317071 -0.293448 0.896832 -0.092926 0.212044 0.301247 0.339122 0.240585 0.214813 0.277192 0.480936 -0.384002 -0.090928 0.093030 0.044217 1.305109 0.785693 -0.318155 -0.287326 1.307601 -0.046909 0.223213 0.440456 -1.126796 0.966072 0.345741 -0.547512 -0.489950 0.126272 -0.946782 0.292830 -0.006205 0.579353 0.854644 -0.369972 -0.374479 -0.101678 -0.227224 -0.131508 0.530272 -0.146988 0.023533 0.006022 -0.195587 -0.193449 0.121038 -0.988956 0.332292 0.165658 -0.035942 -0.416035 -0.853024 -0.197676 0.087782 0.264556 1.182216 -0.174091 0.646658 0.588070 -0.118702 0.866653 -0.851575 0.729540 -0.350091 -0.031693 0.077651 0.563483 0.422138 -0.512089 0.820915 0.472422 0.836630 1.329775 -0.323632 1.301279 0.427696 0.689840 0.124950 0.106248 0.316180 -0.448947 0.544673 -0.250837 0.139836 -0.371962 -0.142161 0.086331 0.568616 0.160871 -0.042300 -0.154347 0.044365 -0.325930 -0.269514 0.111205 -1.028803
calmar 0.400037 0.233364 -0.068284 0.399727 0.234285 0.008464 -0.572500 -0.050229 0.319580 0.441722 -0.245742 -0.146279 0.472984 -0.109429 -0.082175 -0.572493 0.059157 -0.156571 0.138834 -0.090585 -0.004602 0.182627 -0.226149 0.718033 -0.300352 0.284784 0.454767 -0.138451 -0.076735 -0.815454 -0.066195 0.478273 -0.258955 -0.931016 0.521343 0.578143 -0.420531 0.228900 0.609483 -0.343203 -0.140767 0.117508 -0.458280 0.600804 0.126915 1.288058 0.018449 0.376173 0.073685 0.101453 -0.346055 0.248281 0.766287 0.021945 0.038414 0.250052 0.535382 0.360458 -0.017841 0.289539 0.289021 -0.003631 -0.202623 0.925811 -0.381942 0.270120 -0.264350 0.026094 -0.827713 -0.053577 -0.055105 -0.668086 0.247135 -0.222412 0.568831 -0.298354 0.619957 0.870377 -0.150529 0.322998 0.614493 0.555157 0.307707 0.055838 0.327172 -0.724837 -0.009598 -0.256920 -0.204996 -0.224126 0.149301 0.370673 -0.246870 -0.125502 0.055109 -0.690889 0.225700 -0.055525 0.061037 0.071130
centro 0.118491 0.418154 0.900231 -0.420669 -0.306561 0.602507 0.659289 0.167744 -0.266649 -0.396861 0.954821 -0.342743 -0.019253 0.415263 0.418761 0.163009 -0.248464 0.311775 0.734737 -0.358106 -0.379618 -0.168396 0.321489 0.365308 -0.390736 -0.272086 1.023745 -0.233156 -0.130474 -0.427703 -0.175901 -0.754541 0.680568 -0.343633 -0.800637 -1.096764 0.152249 -0.440294 -4.879984 0.045302 -0.307538 0.158032 0.741053 0.319970 0.199097 -0.359073 0.093390 -0.447365 -0.201872 0.183758 0.199134 -0.017107 -0.245683 -0.012313 -0.772384 -0.070400 0.283374 -0.002698 -0.030493 0.343912 0.331317 -1.590409 -0.930854 -0.094429 0.290846 -0.023848 0.845521 -0.152998 0.531136 0.391658 -0.405244 -0.653767 -0.206193 -0.544630 -0.142604 -0.316022 0.217547 0.365899 -0.070798 0.605601 1.332216 0.455944 -0.429218 -0.272602 0.448207 0.675076 -0.283366 0.948246 0.408483 -0.937933 0.373225 0.300897 0.970482 1.234090 -0.224118 0.097716 0.565313 0.744568 0.305631 -1.180572
cerrar 0.628727 0.021088 -0.094983 -0.172017 0.069582 0.070252 0.301581 -0.067562 0.450010 0.075820 0.157579 0.229813 0.334135 0.790696 -0.616977 0.266639 0.047424 0.235696 -0.202836 -0.473487 -0.152916 0.334660 -0.441670 0.051910 -0.423193 0.211125 0.104206 0.096397 -0.125194 -0.219515 -0.487891 0.160644 -0.134115 -0.649678 0.224687 0.040528 0.377650 -0.502734 -0.637715 0.034496 -0.424380 -0.019971 -0.458699 0.406837 0.153425 0.817720 0.212730 -0.146044 -0.223495 0.184707 -0.629583 0.107012 0.236150 0.600203 -0.184226 0.003212 -0.355372 -0.337338 -0.103758 0.021964 0.344499 0.551479 0.192671 0.231026 -0.174732 0.035818 0.029226 0.099630 0.231881 0.857289 0.340792 -0.508356 0.757658 -0.494597 0.408618 -0.706629 0.485524 -0.270223 -0.125425 0.108957 1.267199 0.282640 0.399165 0.271066 0.411624 -0.533389 0.647499 0.169987 -0.184649 -1.212465 0.265234 -0.350090 -0.434075 0.403327 -0.345308 -0.381623 -0.067436 -0.749023 -0.278335 0.564393
claro 0.398772 0.192403 0.392218 -0.965966 0.167380 -0.054745 0.023293 0.632991 0.661527 0.469536 0.325028 -0.277689 -0.390360 0.198828 -0.748107 -0.223106 -0.461210 -0.630712 0.537250 0.621543 0.559524 0.526453 0.451672 0.094368 0.010723 0.430152 0.372682 0.050802 -0.135424 0.390281 -0.363874 0.503195 0.487193 0.503291 -0.222068 -0.168945 -0.249713 0.258078 -0.849679 -0.327977 0.413150 -0.040705 -0.454088 -0.382137 -0.690992 -0.119205 0.049506 -0.177034 0.196993 0.084722 -0.044516 0.441521 0.235199 -0.276600 0.123395 0.446732 0.003866 -0.558931 0.622906 -0.689359 -0.228549 0.441846 0.275585 0.156732 0.066417 -0.105496 -0.226269 0.277970 0.327267 -0.142796 -0.548554 0.750962 0.084514 0.115315 0.487307 -0.419933 -0.317023 -0.062550 1.005113 -0.550360 2.145031 0.263175 -0.066518 0.217861 -0.205187 0.338350 0.012943 0.491499 -0.459277 -0.542069 0.000618 -0.411657 -0.383211 0.185373 0.127863 -0.153297 -0.321316 -0.307870 -0.307506 -0.374446
cómodo 0.214004 0.221529 0.012214 -0.140242 0.038255 -0.173463 0.175809 -0.148990 -0.285756 -0.111023 0.298916 0.168794 -0.165528 -0.480541 -0.260873 -0.076743 -0.256730 -0.638131 0.745727 -0.086643 -0.119297 0.613582 -0.111483 -0.035648 0.010527 0.169634 0.834074 -0.172897 -0.063097 0.002806 0.278375 -0.643825 -0.111497 -0.557770 0.035906 0.301648 -0.006868 0.599371 0.501899 -0.429544 1.152714 -0.747013 -0.432328 0.571325 0.013642 -0.014356 -0.140078 0.051321 -0.335654 -0.020849 -0.320977 0.208464 0.049417 -0.461941 -0.277815 -0.274640 0.330294 0.257168 0.008261 0.460901 0.435919 0.409800 -0.350360 0.602236 0.195173 -0.521852 -0.332017 -0.198029 -0.187417 0.724937 0.265017 0.198476 -0.198289 -0.140438 0.287727 0.063204 0.281656 -0.636753 1.235214 0.033944 1.027161 0.415827 -0.491767 -0.021183 0.052291 0.297865 0.192168 0.500843 -0.715201 0.062474 0.075697 -0.395418 -0.318800 0.107491 0.199004 -0.598247 -0.013059 -0.213739 -0.606875 -0.108297
completo -0.737982 -0.076418 -0.243383 -0.471222 -0.098722 0.701981 -0.062265 -0.292718 0.548137 0.013832 0.060694 -0.033629 -0.896404 0.755978 -0.227721 -0.416356 -0.483307 0.053522 -0.027217 0.155102 -0.299555 0.403145 -0.197454 -0.188986 0.147982 0.185270 0.471392 -0.002718 -0.008922 0.217524 -0.257789 0.509791 0.086274 0.425494 0.082128 0.312916 0.218739 -0.039517 -1.362797 0.052337 0.527220 -0.485992 -0.102966 0.370819 -0.009299 0.168660 0.181134 -0.020347 -0.485400 0.189507 0.252960 -0.471099 -0.769786 0.298852 0.497730 0.680458 0.101763 0.186033 -0.027206 0.024738 -0.183306 0.404376 -0.511592 0.093315 -0.064648 -0.192397 0.145174 0.119673 -0.380279 0.025018 0.062964 0.063762 -0.147386 -0.074771 0.716747 -0.228686 0.079509 -0.238126 0.513655 -0.001654 1.790352 0.364829 -0.228109 -0.263787 -0.193896 -0.390118 -0.238849 0.869586 -0.294083 -0.528862 -0.460279 -0.184079 0.213021 0.010691 0.299071 0.385100 -0.357601 -0.029231 -0.282736 0.032361
comprar -0.332877 -0.208401 0.295476 0.510578 0.306247 0.010361 -0.003422 -0.011204 -0.822838 0.720613 -0.425102 0.341629 -0.137291 -0.748212 -0.719202 -0.208945 0.532155 -0.335170 -0.279935 -0.066294 -0.245991 0.290437 -0.324279 -0.414489 -0.234207 0.046558 -0.224979 0.903936 -0.526328 0.141582 -0.383408 0.336915 -0.513301 -0.036887 0.593969 -0.043678 0.075848 -0.370897 -0.518864 0.275708 0.042178 -0.829638 0.357110 0.228840 0.577984 0.346341 0.888243 0.182547 0.163146 0.908578 -0.508033 -0.203572 0.280612 1.336189 -0.751699 -0.640334 0.504772 -0.240733 -0.126343 0.128336 0.008913 0.433306 0.175181 -0.089840 -0.141159 0.140670 0.244382 0.293620 -0.824361 0.033466 0.189129 0.032327 -0.111523 0.461908 0.076541 -0.319588 -0.072656 0.062523 -0.215856 -0.252251 1.821972 -0.329683 -0.420937 -0.278196 0.619028 -0.715598 0.089993 0.157565 -0.328667 -0.808000 0.606105 -0.993893 -0.000504 -0.171984 -0.224387 -0.337921 -0.182152 -0.159979 -0.696392 0.503024
continuar 0.116398 0.155347 0.078286 -0.362185 -0.155354 0.392961 -0.370880 -0.008928 -0.765022 0.312939 0.098436 0.579075 0.589154 0.695636 0.266080 -1.114797 0.040970 -0.480381 -0.690609 -0.769136 -0.148483 0.559947 -0.056561 -0.806867 -0.227782 -0.001192 0.031068 0.650063 -0.081261 0.059216 -0.345739 -0.387894 0.131090 -0.312928 -0.019884 -0.459487 0.266728 -0.052154 -1.773963 0.348245 -0.022305 -1.100442 -0.232142 1.049165 -0.514170 0.537354 -0.059404 0.298790 0.033364 0.116000 -0.363869 -0.116563 0.789989 -0.190052 -0.679425 0.433393 -0.535674 -0.556167 -0.155078 0.703322 -0.005050 0.517767 -0.182646 0.346220 -0.305570 0.626600 -0.526372 -0.331163 -0.304562 0.330960 0.012139 -0.147379 0.069700 -0.285972 0.098246 -1.034893 0.122327 0.494681 -0.003994 -0.193973 1.427278 -0.057456 0.142383 0.317325 0.216842 -1.105380 -0.381239 0.319090 -0.593057 -0.270017 -0.080910 -0.289173 0.025317 -0.018526 -0.343566 0.271881 0.342101 -0.478776 -0.182983 0.708639
crear -0.002774 0.091449 -0.381810 -0.045842 0.188255 0.467190 -0.298375 0.452609 -0.346238 1.018986 -0.385654 -0.474146 -0.051289 0.101837 -0.877576 -0.157695 0.685880 -0.218268 -0.569150 -0.267162 0.376927 0.103850 -0.106710 0.089300 -0.009282 -0.104367 0.655547 -0.212084 -0.344795 -0.100789 -0.625717 -0.349965 -0.146006 -0.328954 0.104682 0.094792 -0.302534 -0.419631 -2.055686 0.140694 -0.198072 -0.455735 -0.075463 0.026885 -0.407753 0.378396 -0.392801 -0.241971 0.243082 0.412763 0.243153 -0.726002 0.982503 0.719965 0.398719 -0.339093 -0.107668 0.260194 -0.087532 -0.250141 -0.213896 0.019966 -0.698909 0.631960 -1.289449 0.160244 0.325364 0.260717 -0.593239 -0.059735 -0.372922 0.193026 -0.488047 -0.280764 0.385340 -0.283740 -0.132418 0.015288 -0.198562 -0.540761 2.177181 -0.173436 -0.325300 -0.279641 0.366648 -0.977040 -0.251730 0.074391 -0.560444 -0.636669 0.585838 -0.751189 0.310294 -0.322963 0.120161 0.099142 0.047709 -0.882729 0.302432 0.205270
desierto 0.157532 0.088305 0.878975 0.010632 0.706862 -0.369602 -0.448167 -0.403299 0.569561 0.078394 -0.408922 0.205498 -0.066357 0.367453 -0.377967 -0.123007 0.504744 -0.315052 -0.019135 0.272744 -0.075708 -0.691982 -0.505064 0.884936 0.445375 -1.295063 -0.207497 -0.790513 -0.771712 0.574567 -0.391399 -0.124927 0.397480 -0.632276 0.230419 -0.235696 0.895858 0.690076 -1.570654 -0.298774 -0.164716 0.117193 -0.038170 -0.136399 -0.893237 1.027804 -0.817017 1.121052 0.066297 -0.134148 -0.710915 -0.224546 0.148274 0.782219 -1.178606 -0.359608 0.221813 -0.164611 0.141880 -0.009601 0.508219 0.224375 -0.692546 -0.147264 0.055217 -1.120661 -0.198147 -0.320699 -0.594924 0.009521 -0.041376 0.162005 0.209678 0.656506 -0.388263 0.389476 1.223443 -0.478234 0.356142 0.431685 0.958155 0.511893 0.467054 0.675716 -0.535407 -0.116545 -0.355194 0.003427 0.003930 0.340768 -0.420205 0.063380 -0.691478 -0.304277 0.414304 0.350148 0.430973 0.392237 0.511533 -0.653752
decir 0.127609 -0.061650 0.059939 0.242402 -0.047046 0.188316 -0.032474 0.463787 -0.017680 0.025078 0.057843 0.351299 0.097421 -0.392442 -0.453759 -0.105201 0.204962 -0.481869 0.073572 0.421652 -0.221978 0.149776 0.322063 -0.040237 0.872269 0.311707 0.523877 0.347415 0.248867 0.761188 -0.642013 0.678715 0.163616 0.194463 -0.619711 0.074309 -0.200095 -0.370080 -0.708376 0.478364 0.065118 -0.012946 -0.427127 -0.426593 -0.020851 0.278471 -0.187041 0.369237 0.003174 0.276848 0.237446 0.282409 0.136083 0.264260 -0.341155 0.152538 0.094338 -0.627247 0.965293 -0.141817 -0.589770 0.058826 0.744442 0.272857 -0.572321 0.534210 -0.122537 0.238048 0.029031 0.291186 -0.411905 0.214713 -0.061132 0.062246 0.250728 -0.122576 0.154345 0.153313 0.432812 0.160771 3.345397 -0.131408 0.575418 -0.409582 -0.002830 0.086906 0.534496 -0.791454 -0.173294 -0.636605 0.101429 0.112418 -0.258801 -0.380592 -0.231480 -0.613266 -0.209185 0.451546 -0.092008 -0.038830
demente 0.073974 0.197115 0.805404 0.243900 -0.411349 0.472607 -0.167725 -0.218908 -0.056399 0.047760 0.117968 -0.090377 -0.092342 0.162032 -0.236517 -0.123754 0.059993 -0.584746 0.104380 0.169147 -0.221056 0.306820 -0.597072 0.247612 -0.388076 -0.094732 0.360989 0.226487 -0.034517 0.110702 -0.118143 -0.196816 -0.554086 0.011349 0.413859 0.643107 0.222970 0.886095 1.180552 -0.568971 -0.054981 -0.095350 -0.033562 0.418232 0.707440 -0.363819 0.011359 0.204568 0.166085 -0.501318 -0.033920 -0.563894 0.041805 0.014990 -0.040978 0.819596 0.350355 0.536715 0.049651 -0.273994 0.164832 -0.853472 0.316361 0.245365 0.347492 0.023481 0.024290 0.493919 0.119002 -0.220826 -0.120694 -0.100217 0.152064 0.062954 -0.721076 -0.437210 0.297493 -0.253768 0.248617 0.151295 -0.113805 0.062206 -0.371107 0.040585 0.066616 -0.195541 0.141168 0.365465 0.048389 0.106955 -0.091216 -0.427747 -0.098165 0.022734 0.345132 0.062370 0.348578 0.046921 -0.092253 -0.087418
ebrio 0.181793 0.397919 0.446298 -0.079291 -0.974151 -0.049470 0.274337 -0.399099 0.226471 0.295486 0.525322 0.194440 -0.062692 -0.788480 0.296391 -0.480423 0.328774 -0.486354 0.074158 0.209321 -0.272813 0.126809 -0.215750 -0.349334 0.007989 0.738110 -0.001460 -0.063181 0.092356 0.564970 0.078125 0.040625 -0.748834 -0.812816 -0.019670 0.106328 0.507382 0.283301 1.007890 -0.177749 0.158931 -0.257801 -0.056255 0.338172 0.190758 -0.313393 -0.357357 0.599540 0.150968 -0.362516 -0.225282 -0.100352 0.467970 0.449087 0.539952 0.544401 0.321724 -0.386071 0.212677 -0.027372 -0.043079 -0.558901 0.247521 -0.696262 0.404098 0.384311 0.052831 -0.297948 0.550216 0.431641 0.444153 0.013753 0.099326 -0.248290 -0.840973 0.447615 0.335926 0.211844 0.386805 0.584538 0.167260 0.385102 0.480983 0.469260 -0.283087 -0.046230 -0.201871 -0.007880 -0.239433 0.353953 -0.357369 -0.219987 -0.268888 -0.088308 0.001004 0.305964 -0.100502 -0.205177 -0.286550 -0.004203
economizar -0.315798 0.122453 0.197980 -0.263141 0.079524 0.276903 -0.406238 -0.029251 0.641202 -0.004441 -0.283716 0.037295 0.425484 0.088616 0.062856 -0.216948 0.147081 -0.076884 -0.147709 -0.063566 0.396406 0.423764 0.287712 -0.034634 0.079604 0.782817 0.222387 -0.105330 0.222626 -0.553400 0.057358 1.108496 -0.231439 -0.484596 0.289007 -0.061976 -0.136321 -0.167586 0.762341 -0.178544 0.069336 -1.074151 -0.175275 0.483711 0.601292 0.422498 0.199783 -0.197686 0.803816 0.616516 0.025883 -0.237846 0.154119 -0.006599 -0.195001 -0.226531 0.151353 0.012692 0.024936 0.021989 -0.223573 0.182228 0.101522 0.097968 0.774012 0.387646 -0.200883 0.510361 -0.418112 0.068412 0.672689 -0.129280 -0.353837 -0.421255 0.047041 -0.200823 0.338569 0.376441 0.427814 -0.019452 0.050072 0.354517 -0.253835 -0.169515 0.147960 -0.123280 -0.000926 0.179316 -0.963539 -0.572962 0.079648 -0.198159 -0.118561 -0.188628 -0.048816 -0.003083 0.331936 -0.174994 -0.365123 0.992714
efecto 0.731005 0.444251 -0.087321 0.090533 0.388092 -0.529926 -0.122077 0.297015 0.517152 0.242419 -0.050802 -0.514203 -0.181486 0.585859 -0.283884 -0.481049 -0.278921 0.365374 -0.125933 0.761702 0.942840 -0.502483 0.137082 0.055537 0.007695 0.355926 -0.069952 -0.111507 0.423839 -0.167081 -0.057585 -0.121277 0.446329 1.014884 0.459944 0.468451 -0.667452 0.180774 -0.775669 1.054519 0.687525 0.561889 0.004886 0.201448 -0.730275 0.633087 1.098644 0.044745 0.298419 -0.691145 -0.242106 -0.136749 -0.260896 0.077837 0.217178 0.338932 -0.153043 0.069389 -0.099790 0.464881 0.088406 0.362432 0.332426 -0.527897 -0.779391 -0.418767 0.863470 0.311589 -0.124399 -0.166901 -0.152391 -0.769988 -0.010178 0.267024 -0.039230 -0.102992 0.553161 0.537376 0.743540 -0.051606 2.740021 0.494571 0.124919 -0.039363 -0.244363 -0.204340 0.300028 0.639135 -0.421142 -0.479933 0.503855 -0.163702 0.134226 0.042463 -0.125638 -0.045890 0.048168 -0.500715 0.655138 0.018809
entrada 0.533686 -1.258406 0.161425 0.645465 0.042948 -0.203921 0.242209 -0.303773 -0.064000 0.109039 -0.166755 0.459530 0.329312 -0.003122 0.472119 -0.264893 -0.267081 -0.114534 0.344591 -0.025547 -0.156407 0.390975 -0.240622 0.165018 -0.964911 -0.668045 -0.873643 0.495225 -0.068049 0.484396 -0.495169 -0.718412 0.060230 0.172050 0.786915 -0.130014 -0.716444 -0.261941 -1.926797 -0.156890 0.513515 0.223464 -0.262811 0.880115 -0.076065 -0.093013 -0.098639 -0.012223 0.826794 -0.184130 -0.227328 0.103875 -0.724804 0.201774 -0.591957 0.067510 0.012484 0.300577 0.283142 0.030315 0.505643 0.002912 0.002963 -0.512309 -0.240801 -0.216991 0.551531 0.700990 0.221856 0.319708 -0.181523 -0.222551 0.232917 -0.464628 -0.352563 0.038500 0.476059 -0.178999 -0.173983 -0.223519 2.209172 1.097582 0.866077 0.520473 -0.050429 0.359186 0.341235 -0.077386 0.463186 -1.086140 -0.150392 -0.048739 0.418668 -0.080727 0.158170 0.199746 -0.037451 -0.427287 0.275246 0.100494
extraño 0.141230 0.093269 0.327433 -0.273921 -0.157058 -0.113325 0.212684 0.502425 0.637574 0.270512 0.322755 -0.104843 -0.815532 -0.346733 -0.375319 -0.435169 -0.100858 0.013414 0.104463 0.911531 0.338685 -0.004723 -0.094076 0.176862 -0.042373 0.313729 1.110590 -0.170165 -0.243734 0.534916 -0.453984 0.405779 0.015900 0.639787 -0.267604 0.297374 0.198562 0.410399 0.321703 0.205306 -0.042517 0.080749 -0.446046 0.423584 -0.111550 -0.203159 -0.006230 0.043819 -0.145474 -0.728472 -0.470016 -0.223133 -0.197213 0.227790 0.196927 0.461173 0.738742 0.081718 0.508624 0.058930 0.437054 0.227754 0.100793 0.102130 -0.307321 -0.093521 -0.118173 0.408225 0.087808 0.362447 -0.582674 0.014577 -0.119263 0.082190 0.169523 -0.386324 0.338673 -0.005667 0.665204 0.566604 1.931656 0.419430 -0.144732 -0.055350 -0.392495 -0.163398 0.304467 0.416064 -0.292863 0.208676 -0.041391 -0.171255 -0.398311 0.155075 0.056265 -0.013807 -0.351155 -0.191874 0.059155 -0.299326
fácil 0.161398 -0.238684 0.901900 0.080264 0.225866 0.424621 0.096777 0.002600 0.064866 0.390272 -0.328209 0.230357 -0.051426 -0.478735 -0.409379 0.375626 0.696019 -0.170689 0.409284 -0.020013 -0.391643 0.151732 -0.147758 -0.575864 -0.203200 0.411836 0.495625 0.029681 0.579578 0.042594 -0.517921 0.106852 0.192800 -0.141986 -0.536550 0.305101 -0.288253 -0.247228 -0.319418 0.387602 0.102172 -0.364959 -0.568432 0.983705 -0.637234 0.370516 -0.278742 -0.033050 0.141185 0.386495 -0.226175 0.160448 0.034699 -0.632074 -0.034363 -0.370423 0.769637 -0.388256 -0.395576 -0.084394 0.062848 0.477612 0.840583 0.559891 -0.706907 -0.561174 0.113486 0.180471 -0.050430 0.370518 -0.239256 0.448722 -0.130219 0.121228 0.372880 -0.772429 0.021216 -0.270978 0.519157 -0.112258 2.369441 0.133539 0.369975 -0.745125 0.034354 -0.263146 0.180209 0.538717 -1.042072 -0.389540 -0.083036 -0.119120 -0.506512 -0.367404 0.167827 -0.593675 0.040730 -0.824813 -0.178456 0.062076
fallecer -0.027352 0.520872 0.568075 0.074758 -0.134894 -0.574357 -0.166313 -0.439458 -0.086458 -0.592101 -0.137474 0.155087 -0.105479 -0.018605 0.304917 -0.080309 -0.119284 -0.016834 -0.301525 -0.152633 0.279466 0.705354 -0.274460 -0.223929 -0.553662 -0.064235 0.098511 0.388408 -0.038919 0.033117 0.687985 0.455385 -0.453690 0.095820 -0.032227 0.140828 0.319584 0.599433 0.423583 -0.098539 0.777345 -0.094807 0.030381 0.303326 0.439419 0.465995 -0.128941 -0.139423 -0.409188 -0.175130 0.474541 0.126908 -0.285585 -0.163100 -0.890600 0.937104 -0.614971 0.128634 0.437448 0.787559 -0.266623 0.368286 -0.021405 0.151233 0.335563 -0.054542 -0.201577 -0.258611 0.565395 -0.062764 0.383952 -0.235265 0.330915 -0.021326 -0.198621 0.138576 0.250519 0.491406 -0.263964 0.755873 0.245398 0.628483 0.317764 0.332000 -0.043002 -0.160725 0.547732 -0.615657 -0.271543 -0.100931 -0.409482 -0.397031 0.206802 -0.033276 -0.089400 -0.446163 -0.270067 -0.392876 -0.375150 0.274968
famoso -0.090459 0.590288 0.365690 0.513299 -0.438146 -0.169563 0.643958 -0.071346 -0.364351 -0.106335 0.248536 -0.719229 -0.899321 0.350377 0.155099 -0.091878 0.052209 -0.093451 0.022309 0.351539 0.210123 0.354275 -0.101180 -0.188369 0.381573 -0.003598 0.673284 -0.229106 -0.561439 0.625971 0.421397 -0.893153 -0.307291 0.158330 -0.184112 0.398608 -0.103368 -0.041537 -1.020016 0.263695 0.215230 0.268937 0.018513 0.172173 -0.053006 -0.248992 -0.626829 0.435974 -0.453248 -1.216965 0.630968 -0.173068 -0.129246 0.606858 -0.256989 -0.298560 0.817516 -0.036104 -0.254414 -0.631914 -0.042800 0.582715 -0.052188 0.113372 -0.436728 0.025330 -0.551011 0.233595 0.144310 -0.753506 0.507244 0.050613 0.017397 0.423895 0.115957 -0.052082 -0.613930 0.007728 -0.141418 0.445273 1.887255 0.269818 -0.418393 0.082379 0.003981 0.032501 0.646450 0.451234 -0.155553 0.854933 -0.045701 -0.634651 0.145606 -0.526981 -0.339801 0.679463 0.013582 0.290358 -0.253415 -0.536965
flaco -0.317727 0.271110 0.259513 0.179021 -0.090122 -0.309700 0.207816 -0.231730 -0.107358 -0.068909 0.296215 -0.082789 -0.018873 -0.499182 -0.180669 -0.574308 -0.266161 -0.952407 0.409201 0.571290 -0.440453 -0.174890 0.200568 0.132090 0.121214 0.018246 0.346055 0.738609 0.765296 0.089461 0.051495 0.085714 0.310142 -0.101752 -0.504988 -0.105235 0.051343 0.457449 0.289708 -0.275261 0.407748 0.066924 -0.933531 0.250098 0.155844 0.127853 -0.081587 -0.238698 0.464663 0.362976 0.068002 -0.118207 0.068155 -0.320181 0.320948 0.582130 0.557603 -0.168728 0.156379 -0.022378 0.425642 -0.468665 0.232030 0.219504 0.671871 -0.350489 -0.025314 0.311833 -0.140218 -0.245250 0.818353 0.167335 -0.423806 -0.167575 0.634246 -0.060238 0.232647 0.264457 0.592256 0.289538 0.249515 0.617927 -0.197675 0.399609 0.141249 0.607940 0.111951 0.592859 -0.545258 0.519543 0.117093 -0.832704 -0.528400 0.277872 -0.456981 0.475068 -0.130664 -0.462731 -0.339713 -0.450123
grande -0.210377 0.274790 0.521512 -0.174391 -0.312098 -0.425880 0.579979 -0.085266 0.518878 0.114630 -0.266626 0.020853 -0.023359 -0.910787 0.029910 0.361563 -0.138107 0.939112 0.978713 0.259849 -0.822727 -0.568069 -0.166336 0.282852 -0.145382 -0.433778 0.341463 0.256572 0.495477 -0.266858 -1.036784 -0.397954 0.688666 -0.429776 -0.322071 -0.244313 0.112099 -0.101821 -1.885177 0.310074 0.705412 0.013256 0.037376 -0.144566 -0.662047 -0.367670 0.165413 -0.564456 0.252991 -0.023308 -0.021978 0.536858 -0.569150 0.682233 -0.254565 -0.689598 1.046096 0.001052 0.464816 -0.174637 0.104031 0.165615 -0.022358 0.390900 -0.642230 0.380366 -0.663032 0.588229 -0.040127 -0.246526 -0.004029 -0.206334 -0.447835 0.584911 -0.028101 -0.263307 0.037778 0.557682 0.371283 0.648133 2.563255 0.173931 -0.506884 -0.073304 0.303309 0.417756 -0.186292 0.164670 -0.427527 -0.049749 -0.374034 0.306390 -0.674531 -0.225045 0.133492 0.504546 0.343587 0.104769 -0.440779 -0.547154
humildad 0.668281 0.578248 -0.298215 0.377027 -0.448410 -0.121181 -0.575377 -0.458042 -0.085045 0.459977 0.411803 0.056984 0.606667 -0.246192 0.469334 -0.322457 0.053062 0.225038 0.656641 -0.508250 0.115844 -0.108333 0.567956 -0.227222 -0.058096 -0.295419 0.064335 -0.150723 0.128703 0.193699 -0.405262 -0.027246 0.232721 -0.122657 0.355406 0.446701 -0.239988 0.069465 0.345514 0.092545 0.369987 -0.052207 -0.534794 0.286288 -0.338813 0.082997 -0.135122 -0.545923 -0.202191 0.194226 -0.520980 0.093354 -0.583995 -0.057407 0.904746 0.672099 0.817293 -0.082467 0.518897 -0.027545 -0.110796 -0.554369 0.274281 0.023650 0.255280 0.468760 -0.320804 -0.403987 -0.121819 0.029951 -0.046817 -0.427552 0.252706 -0.052281 0.606323 0.512885 0.018799 0.516025 0.524889 0.462448 0.511934 -0.214251 0.126782 -0.335129 -0.091301 0.148113 0.254608 -0.304985 -0.113692 0.368904 -0.648140 0.600704 -0.768967 0.323126 -0.045977 -0.400850 0.104807 0.028402 0.285092 0.638071
idéntico -0.701699 -0.394423 0.018227 -0.495063 0.247620 0.014872 -0.092583 -0.249289 0.131200 0.315254 0.119870 0.232083 -0.375467 0.489077 -0.226385 -0.261728 -0.727143 -0.325013 0.257239 0.781536 0.597963 0.116561 0.003063 -0.094224 -0.605411 0.549708 0.084809 -0.440118 0.518776 0.025257 0.182271 -0.176693 -0.003065 0.536542 -0.337515 0.424288 -0.013385 0.060382 0.338868 -0.382949 0.275536 0.498011 -0.181602 0.567207 -0.117435 -0.084291 0.144147 -0.036259 0.314207 -0.168144 0.409590 -0.235064 -0.623196 0.146529 0.994584 0.426022 -0.302899 0.246661 0.427545 -0.064017 -0.228469 0.161098 -0.280563 0.226256 0.147290 -0.494681 -0.051564 0.104795 0.247024 -0.399942 0.047761 0.091735 -0.230910 0.416353 0.315909 0.020154 0.116952 -0.146468 0.700458 0.089982 1.027629 0.455749 -0.207124 -0.836294 -0.031569 0.089191 0.082443 0.024012 -0.007287 -0.110500 -0.145363 -0.631928 -0.075422 0.069553 -0.642266 -0.039431 0.054374 -0.205418 -0.451262 0.226051
ignorante 0.490897 0.393528 0.073705 0.231376 -0.762634 0.216679 0.108824 -0.169787 -0.009843 0.016537 -0.055476 0.167697 0.072827 -0.676830 0.256419 -0.287443 0.405994 -0.293632 0.370858 0.228340 -0.582261 -0.407431 0.015870 0.010363 -0.250572 0.053908 0.844824 -0.089836 -0.269477 -0.349961 -0.216261 0.734652 0.292726 -0.047249 -0.183485 0.698784 0.746143 0.967968 0.949217 -0.803389 0.085882 -0.206119 -0.118711 -0.020089 0.048695 0.336133 -0.047916 0.329015 0.441978 0.282208 0.199698 0.038645 0.036911 0.288643 -0.105784 0.503334 0.778475 0.133441 0.143959 -0.232542 0.088629 -0.551875 0.064783 0.360680 0.313929 0.070908 -0.005495 0.034082 -0.279433 -0.414149 -0.176778 0.498357 0.211129 -0.043724 -0.149690 -0.092944 0.089566 -0.118615 0.537040 0.439183 0.845377 -0.194314 0.303936 -0.239991 0.205268 0.039448 0.253466 0.088923 0.272373 0.338275 -0.239067 -0.153028 0.067407 -0.227349 0.089245 0.030837 -0.566335 0.080743 -0.216266 -0.502998
iluminar -0.156660 -0.213433 -0.150499 0.481506 -0.264552 -0.028988 -0.294811 0.347104 -0.087610 0.327339 0.067498 -0.137581 -0.073435 0.176336 -0.275091 0.240729 0.411091 -0.124854 -0.127382 -0.069377 -0.074186 0.405288 -0.235348 0.299199 0.113319 -0.504404 0.637814 -0.326075 -0.025043 -0.123953 -0.373158 0.642347 -0.027308 -0.620435 0.724895 0.126952 0.057324 0.224849 0.022521 -0.030287 -0.148836 -0.487894 -0.594043 0.623828 0.170790 0.208077 0.160202 -0.219310 0.770322 0.097396 -0.336785 0.007604 -0.060991 0.806805 0.259623 -0.154779 0.535800 -0.378061 -0.263743 0.167679 0.518072 -0.563431 -0.384153 -0.175892 -0.284835 0.015066 0.232928 0.173484 0.375903 0.208965 -0.069440 -0.446787 0.008222 0.061666 0.703977 -0.131079 0.488273 0.314972 -0.469176 0.381129 0.197636 0.327530 0.427097 -0.033043 0.337823 -0.139604 -0.108090 0.209741 -0.336841 -0.852517 0.033781 0.078293 -0.052762 -0.285457 -0.237156 -0.476763 0.153572 -0.519751 -0.267799 0.199511
insolencia 0.713251 0.077018 -0.217405 0.357391 -0.578605 -0.151958 -0.235365 -0.316107 0.362557 0.405836 -0.355356 -0.108454 0.226370 -0.341125 0.474972 -0.592795 -0.401725 0.045805 0.133046 -0.320509 -0.072227 -0.128147 0.014229 0.056056 0.015240 -0.065527 0.069716 -0.004116 0.275001 -0.068818 -0.298146 0.121386 0.007210 0.379011 0.127226 0.727436 -0.212693 0.185989 0.874146 -0.125352 -0.445764 0.048482 -0.520947 0.561536 -0.360932 0.198343 -0.049807 -0.078140 0.614548 0.024231 -0.709754 -0.110187 0.276751 0.310581 0.267504 0.160695 0.454288 0.549504 0.235713 0.075270 0.569797 -0.439157 -0.080428 -0.065623 0.230134 0.349046 0.049028 -0.339077 0.392405 -0.341691 -0.448795 -0.176505 0.353402 0.123685 0.021762 0.035295 0.253560 0.086169 -0.497791 0.348676 0.282607 -0.191756 0.298758 -0.793130 -0.210417 -0.173656 0.418853 -0.049093 0.139379 -0.612365 -0.274609 0.263355 -0.575937 -0.110059 -0.305754 -0.309666 -0.152349 0.228179 -0.496512 -0.044290
insulto 0.115277 -0.309646 -0.015320 0.081978 -0.798359 -0.336927 -0.456989 0.002197 0.067848 -0.337706 0.138598 0.173829 -0.274219 -0.025436 0.252362 -0.347841 -0.411473 -0.248591 0.384983 -0.232940 0.395846 0.416148 -0.162509 0.195837 -0.420435 0.127333 0.642127 -0.080261 -0.465447 0.103950 0.014266 -0.454143 -0.157435 0.298371 0.021502 0.720248 -0.134911 0.316987 0.935841 0.203572 -0.242446 -0.132620 0.165362 0.699215 -0.136156 0.574119 -0.071613 -0.076713 -0.037228 0.121781 -0.636894 -0.435128 -0.181251 0.339728 0.181433 0.152477 0.391664 0.128057 -0.166089 -0.195731 -0.023336 -0.052470 -0.512267 -0.125977 0.040941 -0.292836 0.285704 0.638681 -0.325418 -0.003592 0.207741 -0.184177 -0.148793 0.314532 -0.097164 0.133660 0.201887 -0.079570 0.230255 0.688510 0.627664 -0.373582 -0.459692 -0.891950 -0.206977 0.370091 0.480400 0.145736 0.177173 -0.191975 0.107556 0.065863 -0.152442 0.086039 -0.177165 -0.250630 -0.317767 0.276165 0.071066 -0.301953
inteligencia 0.290329 0.123922 -0.647121 -0.059731 -0.400282 0.365836 0.263570 0.073129 0.228701 0.190998 0.152536 -0.527798 -0.320146 -0.074445 0.014188 -0.114162 0.581112 0.080461 0.623670 -0.510522 -0.924016 0.226285 -0.091408 -0.122981 0.172015 0.265278 -0.188383 -0.027328 0.809871 -0.833192 -0.519800 1.366091 0.314413 0.016112 0.067319 0.314651 -0.756570 0.158823 -1.029290 0.393952 -0.411901 0.135792 0.116730 -0.628943 -0.273702 -0.116107 -0.094687 0.560296 -0.466380 0.318303 -0.484113 0.011203 0.761568 -0.189993 0.469244 0.092063 0.838556 0.431997 0.092557 -0.438167 -0.405095 -1.173299 -0.486235 -0.414069 -0.419416 0.429948 0.410218 0.023098 -0.055676 -0.442717 -0.171633 -0.203559 -0.386605 -0.221844 0.114210 -0.314809 -0.533574 0.523175 0.331782 -0.716068 1.616358 -0.005241 0.157770 -0.607177 -0.709074 -0.215413 0.256709 0.567116 0.017709 0.373768 0.160397 0.504007 -0.155245 0.082499 0.548195 -0.152810 0.605419 -1.010212 0.229860 -0.425492
justicia 0.993699 0.718026 -0.544754 -0.337056 -0.517618 -0.422913 -0.483957 0.999635 0.053162 -0.023142 -0.068197 -0.210825 0.431692 -0.092685 0.071649 0.668664 -0.275670 0.081674 -0.463256 -0.650297 0.228453 -0.249385 0.437935 -0.324809 0.457348 -0.016753 -0.470431 0.222170 0.960518 -0.206284 -0.356000 0.882807 -0.326592 -0.215460 -0.532235 1.227632 -0.073360 -0.984859 -1.603158 0.146635 0.785835 -0.363287 -0.706953 -0.734691 -0.840141 0.005891 1.044023 0.607365 -0.419663 0.921854 -0.366734 -0.318358 -0.438642 -0.098987 0.433712 0.160016 0.431849 0.509546 -0.061486 -0.687073 0.270956 -0.467029 -0.674711 0.334405 0.046595 0.304224 0.619050 0.085754 -0.338836 0.353344 0.001352 -0.204137 0.185477 -0.250731 -0.033305 0.884397 -0.112371 0.617769 0.364988 0.025706 2.056615 -0.569979 0.406740 0.114402 -0.906075 -0.132951 0.633898 -0.022363 0.824931 -0.197028 -0.337702 -0.034968 -0.442967 0.209275 0.051728 0.492855 -0.051526 -0.766222 0.019583 0.227180
llano -0.248342 -0.503443 -0.258405 -0.189205 -0.459113 -0.425871 0.007337 1.000191 0.288328 -0.075443 0.527964 0.661957 -0.093782 -0.516307 0.334941 0.560203 -0.179382 0.261104 1.023853 0.730163 -0.285215 0.053183 -0.157904 0.560486 -0.082439 -0.014980 0.624733 0.396797 -0.618603 -0.129946 -0.509557 -0.467823 1.114866 -0.882181 -0.057112 -0.635165 0.437381 -0.386703 -1.248736 -0.172998 0.212963 0.085619 -0.248196 0.395020 -0.423967 0.729760 0.522215 -0.267442 -0.269735 -0.329150 0.335571 0.389885 -0.105009 0.528424 -0.028850 0.069724 0.628262 -0.197796 0.516009 -0.560790 0.865456 -0.081010 0.118621 0.350588 0.867357 -0.802778 -0.262938 -0.343408 0.176459 -0.295143 0.029566 0.140970 -1.244821 0.428015 -0.199358 0.397258 0.189019 0.439189 0.945380 0.211726 0.447614 -0.090956 0.262671 0.153622 0.288362 0.128179 -0.165777 0.279694 -0.261588 -0.543679 -0.376050 -0.536376 -0.389000 -0.475451 -0.005529 0.455498 -0.243615 0.587312 -0.614947 -0.767164
llegada 0.131731 -0.400460 0.748246 0.602029 -0.482638 -0.534115 -0.083267 0.127125 -0.184781 0.379146 -0.413287 0.086156 -0.033630 -0.259545 -0.190560 0.518530 -0.010400 -0.011481 0.040423 -0.136159 -0.144648 0.173933 -0.323188 0.155227 -0.370208 -0.181884 -0.802398 -0.054123 -0.744984 -0.294735 -0.257663 -0.600763 -0.283091 0.450371 0.233618 0.239091 -0.190390 -0.281901 -1.444351 -1.481584 -0.345592 -0.102039 -0.068407 -0.092436 -0.858495 -0.101586 -0.591005 0.258844 -0.514149 -0.498854 -0.683567 0.440903 0.199118 -0.241352 -0.694727 -0.068373 0.235558 0.062006 -0.437150 0.558710 -0.885632 0.377429 0.051778 -0.290096 0.625684 0.092515 -0.126847 0.186057 -0.180072 0.041976 -0.025278 -0.032491 0.498985 0.184109 0.074132 -0.008290 0.286847 -0.059373 -0.917438 0.659189 2.169829 0.837430 0.342439 -0.599300 -0.382226 0.040173 -0.091509 0.415743 0.364981 -0.060860 -0.016476 0.179901 0.796858 -0.283385 -0.262780 -0.476954 -0.334209 -0.083701 0.534141 0.124779
lucha -0.690364 0.823779 -0.136926 0.177770 0.019779 -0.640904 -0.592160 -0.805241 -0.341188 -0.058383 0.017382 -0.661642 -0.016524 -1.076612 0.285360 -0.497802 -0.316777 0.188751 -0.240468 -0.562983 0.110351 -0.177764 -0.330124 -0.038108 0.232251 -0.183002 -0.310849 -0.116984 -0.485890 -0.478896 -0.365327 -0.380138 0.183674 0.038705 -0.132706 0.233004 -0.434506 0.201923 -1.627594 -1.062273 -0.621826 0.513950 -1.009858 0.364140 -0.746917 0.203391 -0.215012 0.277396 0.156493 0.892279 -0.220574 0.387636 0.288626 -0.295756 -0.025472 0.262307 -0.338813 -0.090409 -0.571139 -1.054302 -0.423484 0.055583 -0.590413 0.048167 0.679980 0.043544 -0.472377 -0.002822 -0.950684 0.225116 -0.291456 0.030914 0.167052 -0.760169 -0.545255 0.134082 0.175992 0.192902 0.175583 0.598186 2.459511 -0.760981 1.067920 -0.039439 -0.206090 -0.893852 -0.599294 -0.028831 -0.066706 0.625528 -0.162145 -0.239478 -0.777301 -0.211334 0.118468 1.085435 0.315384 -0.894188 0.367100 -0.009728
magnate 0.032897 0.583431 0.312389 -0.126153 -0.574550 -0.530492 0.459973 0.060101 0.048651 0.327421 -0.206767 -0.350514 -0.032425 0.400517 0.051841 0.144963 -0.021189 -0.576163 0.674650 0.194200 -0.065423 0.084116 0.083350 0.383219 0.347478 0.208217 -0.240861 -0.151534 -0.314933 -0.476691 0.216425 -0.124787 -0.780741 -0.197485 -0.445414 0.666315 0.118716 -0.035686 0.580507 -0.393274 -0.156586 0.224368 -0.003115 -0.353484 0.326926 0.200263 -0.007374 0.374613 -0.415573 -0.469754 0.056002 -0.134004 -0.056733 0.690331 -0.165561 -0.186579 0.576982 1.152226 -0.535891 -0.244495 -0.260804 0.115800 0.592409 -0.078428 0.749217 0.306024 -0.152713 0.385519 0.203041 -0.738459 0.534360 0.084602 0.398365 0.724019 -0.608442 0.317384 -0.438317 -0.011907 -0.018794 0.232430 0.234128 -0.083900 -0.783477 -0.165733 0.512323 -0.156763 0.768807 0.866368 -0.273047 0.160395 0.150762 -0.304183 0.243991 0.298228 -0.090848 -0.494859 0.093954 -0.448555 -0.564880 -0.211368
magnífico -0.394640 -0.179216 0.323344 0.307349 -0.302178 -0.175069 0.388439 -0.507701 0.658724 0.517006 0.023670 -0.234094 -0.566787 0.374660 -0.319179 0.369345 -0.036764 0.151010 0.657605 0.471750 0.189534 0.424128 0.143355 0.083660 -0.196703 -0.300764 0.447998 -0.225226 -0.457940 0.297453 -0.221271 -0.559570 0.386160 0.024045 -0.050857 0.149575 -0.049743 0.040232 -0.200190 0.356963 0.478127 -0.668936 -0.297018 0.084516 0.116365 -0.785308 -0.538042 0.547259 -0.395006 -1.001359 -0.357246 -0.406896 -0.268752 0.462023 0.678609 0.271877 0.878455 -0.575115 0.071289 0.342275 0.593085 -0.519133 -0.536491 0.461695 0.144628 -0.118887 -0.143641 -0.243030 0.213928 -0.001781 0.202214 -0.006522 0.038281 0.467806 1.300452 0.258039 -0.280721 -0.537923 0.483903 0.520141 0.957829 0.313184 -0.651350 0.243522 -0.684779 0.511518 0.165522 0.063686 -0.866225 -0.096110 0.188397 -0.279661 -0.662943 0.379159 -0.346983 0.460790 -0.310966 -0.192661 0.291776 -0.201947
matrimonio -0.126713 -0.025967 0.437423 -0.095603 1.306423 -0.170186 0.139573 0.112809 0.241857 -0.130421 0.595021 -0.079294 -0.331774 0.022048 0.364531 0.300733 -0.825223 -0.556720 -0.470829 0.087070 0.427109 0.142163 -0.614313 0.223767 -0.036353 -0.515136 -0.341090 1.062594 -0.024288 -0.174999 0.145631 0.179667 -1.120995 1.310861 0.121845 0.827679 0.984225 -0.089458 -1.027059 -0.743455 0.190609 0.376935 0.295645 0.150454 -0.192314 0.660848 0.128450 -0.461854 -1.306998 -0.015175 -0.063076 -0.270369 -0.738844 -0.446519 -0.637549 0.935463 -0.055108 0.475446 0.298367 0.238852 0.050559 -0.105674 0.599552 0.913533 0.688824 0.190465 -0.706171 -0.631444 0.470433 0.157948 -0.135661 -1.415171 0.268772 0.129856 0.063451 0.584231 -0.711515 -0.152851 0.259088 0.163569 1.912347 -0.157752 -0.216971 0.327875 -0.256625 -0.313526 0.676476 -0.552640 -0.746021 -0.031396 -0.216822 -0.987574 -0.077472 -0.173455 0.813344 -0.190879 0.316392 0.269584 -0.905573 0.410864
mentira 0.123473 0.567709 0.309801 0.018199 0.066220 0.191473 -0.509530 0.244378 0.066343 -0.187871 0.458453 1.049068 0.014153 -0.380107 -0.030075 0.101764 -0.228131 0.016512 0.471673 0.075568 -0.206753 -0.022735 0.852248 0.586897 0.056731 -0.300507 -0.067202 -0.451469 0.845181 0.456264 -0.124556 0.566058 -0.121836 -0.020029 0.216210 0.507631 -0.291883 0.294451 0.284926 0.219903 -0.246390 -0.032382 -0.251992 -0.575413 0.471666 0.097004 -0.064609 0.548821 -0.062316 -0.028825 -0.359602 0.244373 0.505999 -0.098975 0.380182 0.054739 1.108572 -0.530499 0.416264 -0.292753 -0.044927 0.168946 0.724381 0.262467 0.174020 -0.634142 0.221838 0.783997 0.448043 0.194140 -0.307484 -0.478694 0.891276 -0.382579 0.413344 0.235441 -0.314813 0.355084 0.007919 0.389503 0.794031 -0.030164 0.576998 -1.127544 -0.113381 -0.142540 0.037835 0.314408 -0.371043 -0.054191 -0.582362 0.114934 -1.189895 0.060625 0.851096 -0.281321 -0.036074 0.224450 -0.131981 0.108122
miedo 0.883211 1.125065 0.397420 -0.610731 0.411863 -0.529876 -0.300048 0.160284 0.313134 -0.220782 -0.336386 -0.200200 -0.241113 -0.707505 0.049949 -0.712048 0.161621 -0.358134 0.445453 0.550485 0.083234 -0.062215 -0.187923 0.017129 -0.443645 1.324382 0.506216 0.372581 -0.224439 0.397997 -0.231672 0.423600 0.536542 0.042622 0.198049 0.093706 0.419694 0.454041 -0.423248 -0.080440 -0.436024 0.303118 -0.553723 0.010886 -0.481302 0.349834 0.059770 -0.124858 -0.166157 -0.142784 -0.680793 0.521625 0.487499 0.550625 -0.142971 0.613901 0.340035 0.611606 0.533218 -0.529772 -0.184077 0.330466 -0.558031 0.160590 -0.156984 0.037888 -0.006589 0.111605 -0.049738 0.404590 -0.558702 0.033392 0.859142 0.271537 -0.025429 -0.019726 0.452609 -0.030787 0.402439 0.528540 1.964194 0.648998 0.093141 -0.440798 0.015787 -0.318891 0.273068 -1.012680 0.334263 -0.089971 0.549514 0.425656 -0.976842 0.327200 0.242887 0.359080 -0.037774 0.162574 -0.261091 0.172329
sinónimo -0.430482 -0.078345 0.129648 -0.244754 -0.531066 0.898033 -0.445798 0.454954 0.008612 -0.391970 0.022549 -0.144780 -0.324282 -0.522176 -0.100618 -0.752856 -0.128538 -0.406085 -0.230578 0.327177 0.214360 0.298207 0.326795 0.824754 -0.530005 0.686841 0.214361 -1.116968 0.447116 0.391131 -0.066953 0.110727 0.400919 -0.083839 -0.018230 0.926166 -0.515197 -0.275186 0.229332 -0.172144 -0.097193 -0.081780 0.532879 0.186564 -0.107890 -0.186799 0.393830 -0.284961 0.077969 0.822070 -0.048915 -0.377234 -0.621287 0.193892 0.245528 0.404409 -0.030296 -0.048279 0.139200 -0.973416 -0.899944 0.198747 0.376731 -0.157600 -0.320780 -0.055555 -0.019841 0.380966 0.033032 -0.622959 -0.398168 0.589850 -0.810561 0.281543 0.026410 0.213099 0.374776 0.577520 0.206300 0.861656 0.980774 0.122638 -0.306749 -0.072809 0.315012 0.328503 -0.163777 0.530966 -0.044552 -0.435096 -0.168520 -0.249323 0.128814 -0.511228 0.143048 0.127047 0.571002 1.056028 -0.189675 -0.252879
nunca 0.557205 0.999635 0.015984 -0.752072 -0.134927 0.306201 -0.275409 0.121840 -0.210396 -0.272532 -0.213403 0.276972 -0.135701 -0.084928 -0.914684 -0.032921 -0.470234 0.119346 -0.072575 0.264400 -0.955114 0.603074 0.025061 0.257456 0.310866 0.440272 -0.070895 0.451970 -0.297162 -0.017960 -0.629499 0.401548 -0.322477 0.333932 -0.135180 0.420151 0.275990 0.391333 -1.112684 0.188395 0.124947 -0.246955 0.063100 -0.137529 -0.339097 0.030684 -0.025130 0.384848 -0.406387 0.244778 -0.539904 0.261104 -0.073749 0.046181 0.154346 0.144440 0.029749 -0.498487 0.678108 0.127861 -0.332971 0.857790 -0.049027 0.041247 0.301485 0.213520 -0.159410 0.546805 0.089713 0.123329 -0.956518 -0.021012 0.404335 0.023252 0.417439 -0.759515 -0.478344 -0.025782 0.175017 0.022499 3.107452 0.052142 0.454919 -0.406676 -0.111260 -0.488981 0.185577 0.086693 -0.070240 0.642198 0.067541 0.230842 -0.221722 0.264290 0.615897 -0.492615 0.486948 -0.013389 -0.441593 -0.149867
obediente 0.279888 -0.135710 0.364766 0.404777 -0.164820 -0.436051 -0.071243 -0.897437 -0.194674 0.130835 0.012625 0.309226 0.377986 0.268865 -0.474984 -0.633336 0.146126 -0.727158 0.064329 0.487229 -0.873209 -0.086059 0.008555 0.028714 -0.455566 0.011120 -0.149656 0.060050 0.860723 0.379227 0.450794 0.298123 -0.168596 0.457935 0.392755 0.755804 0.423428 0.948822 0.731442 -0.335296 0.462698 0.405175 0.330306 0.318712 -0.100986 0.214157 -0.029078 0.710779 0.119446 0.036199 -0.113434 -0.424867 -0.428841 -0.534255 0.062624 0.713011 0.079545 -0.033278 -0.558939 0.114520 0.546129 -0.516970 -0.027870 0.876832 -0.027782 -0.285427 0.440540 -0.906543 0.180363 -0.259739 0.383541 0.084874 0.165548 1.303136 -0.118511 -0.398146 -0.166013 -0.054129 0.051076 0.446139 -0.023384 -0.370271 0.059414 -0.198194 0.218900 -0.604580 -0.293961 0.203881 0.032457 0.298329 -0.429691 0.303628 0.329945 -0.145450 -0.048591 0.119171 -0.202519 -0.300078 -0.102449 -0.289477
parar -0.113428 0.868498 -0.322970 0.232442 -0.473824 0.036459 -0.611124 0.430643 -0.623289 -0.250411 -0.054768 0.676073 0.244200 -0.126668 -0.153835 0.363056 -0.037147 -0.038778 -0.050708 -0.036798 -0.352877 0.100336 0.008614 -0.454191 0.210031 0.221505 0.277515 0.203447 -0.738895 -0.007673 -0.189999 0.346738 0.507457 -0.737492 0.528210 0.364483 0.200488 -0.228932 0.090751 0.037458 -0.161800 -0.358325 -0.208259 0.593876 0.107113 0.288987 0.867774 0.737588 -0.237582 0.190750 -0.034960 0.251012 0.242240 0.148216 -0.425670 0.112213 0.399221 -0.169554 0.001113 -0.213622 0.392024 0.742818 0.343196 0.027892 -0.313039 0.129765 -0.158846 -0.228376 0.134481 0.119596 -0.014987 0.159940 0.505421 0.004446 -0.049320 -0.878736 0.370661 0.077002 -0.252660 -0.186240 1.383139 0.820070 0.119911 -0.435860 0.031283 -0.532826 0.174289 0.064172 -0.075611 -0.427588 -0.294721 0.279525 -0.316985 -0.527449 -0.602444 0.315892 -0.011080 -0.205623 -0.371981 0.038729
partir -0.345785 0.756740 -0.297911 0.296246 0.046119 0.474806 -0.210522 -0.160426 -0.722674 0.210350 -0.275183 0.246903 0.244646 0.571063 -0.337110 0.380383 -0.005519 -0.022007 -0.751934 0.116625 0.339769 -0.250397 -0.026026 -0.063797 0.261528 0.257008 -0.665075 -0.095777 0.242583 0.032785 0.238529 -0.100696 0.078868 0.859014 0.474665 0.474364 -0.221962 -0.299614 -2.877976 -0.344078 -0.059601 0.687147 0.877667 -0.203521 0.043919 -0.226301 -0.304382 -0.328893 -0.322941 -0.755043 0.285544 -0.013245 0.063290 -0.311467 -0.090017 0.567896 -0.949739 0.018596 -0.204879 0.180122 -0.399413 0.280832 0.248274 -0.079832 -0.113883 0.185480 0.106972 0.328958 0.024493 -0.349946 -0.230832 0.332683 -0.052965 0.330164 0.039445 -0.082801 0.190940 -0.096379 -0.444793 0.243607 2.546985 0.375592 -0.020878 -0.254089 -0.120430 0.289913 -0.638154 -0.100606 -0.501766 -1.021692 0.561460 -0.214696 0.668762 -0.831622 0.455153 0.317012 -0.640627 -0.244462 0.631930 0.382344
paz 0.230024 0.284996 -0.264692 -0.725579 0.667556 -0.022295 -0.390692 0.442057 0.491496 0.938655 0.469961 -0.086892 0.629616 0.007148 0.378473 -0.159969 -0.001682 -0.110497 0.175978 -0.673266 0.545804 0.605923 -0.109214 0.827721 -0.202622 -0.789102 -0.082315 0.625769 0.008506 -0.502696 -0.723659 0.522322 -0.381897 -0.366988 -0.056735 -0.670666 -0.028733 -0.456300 -3.001688 -0.634376 0.966533 0.543144 -1.134377 0.005739 -1.107780 0.252956 -0.334507 -0.041473 -0.379742 0.806605 -0.875651 -0.039163 0.169558 -0.512353 -0.222989 -0.473997 0.610706 -0.723670 0.454464 -0.120995 0.285364 -0.290011 0.331624 0.244492 -0.022834 -0.340046 -0.721703 -0.011488 -0.019645 -0.206279 -0.367139 -0.542317 0.635456 -0.136634 0.232919 0.845722 0.306551 0.449518 0.147970 -0.061480 1.335853 0.117020 0.146830 0.225236 -0.253110 -0.602639 0.767891 0.123446 0.030572 0.379923 -0.384774 0.077806 -0.423414 -0.360444 0.361012 0.799938 0.773788 -0.207673 0.272244 0.100420
penumbra -0.144942 -0.346870 -0.069344 -0.485908 0.019112 0.086126 -0.099433 0.286434 0.380607 -0.266558 -0.406747 0.255630 -0.172885 0.475732 -0.118759 0.038273 0.304184 0.251841 0.425733 0.260832 0.311566 0.436195 0.128889 0.350286 -0.300656 -0.378720 -0.017677 -0.465570 -0.507671 0.174645 -0.075377 0.628515 0.033959 -0.341006 0.703104 0.207074 0.307020 0.469054 0.300342 -0.055364 -0.349138 0.415793 -0.186291 -0.141517 0.256993 0.047999 0.161996 -0.203882 0.168313 -0.461018 -0.537330 -0.049435 -0.181441 0.161199 0.258069 0.167491 0.371395 0.121381 -0.006380 0.389567 0.485383 0.197518 -0.498640 -0.720846 0.105596 -0.783791 -0.122091 -0.134751 0.405858 -0.020235 0.007665 -0.314283 1.063661 0.068767 -0.128098 0.278284 0.497658 0.088953 0.057939 0.491041 -0.097979 -0.158205 0.483196 -0.282707 0.437818 0.181833 -0.115728 -0.000909 -0.194478 -0.467513 -0.440232 -0.210989 -0.714489 -0.181766 0.580210 -0.317773 0.160099 -0.113993 -0.049821 -0.266016
posible 0.279411 -0.217534 0.359049 -0.631198 0.058631 0.107292 -0.247013 0.346646 0.195999 0.535327 -0.323141 0.212290 -0.107779 -0.092734 -0.187248 0.229375 0.212207 0.069984 0.069624 -0.354857 0.063211 0.098549 -0.147737 -0.252620 -0.084634 -0.201942 0.012135 -0.434301 -0.299621 0.260479 -0.588544 -0.136436 -0.125915 0.586022 -0.281976 0.375064 -0.219941 -0.033501 -1.155229 0.549892 0.310018 -0.177427 -0.025988 0.733598 -0.850438 0.535950 -0.233560 0.467126 0.225386 0.188285 -0.267753 -0.145040 0.321567 -0.328281 -0.120148 0.054806 0.128204 -0.027640 -0.145907 -0.084395 -0.980180 -0.196572 0.506234 0.264534 -0.938901 0.093947 0.452538 0.428895 -0.156187 0.329101 -0.539353 -0.127744 -0.151151 -0.052444 -0.189155 -0.408329 0.000671 -0.019218 0.220346 -0.299299 3.241942 0.259974 0.389689 -0.400204 -0.297895 -0.294926 0.516406 0.147424 -1.096602 -0.536821 -0.133812 -0.376755 -0.005501 -0.468916 0.357373 -0.462865 0.012061 -0.647803 0.361176 0.305330
previo 0.641136 -0.222562 0.067493 0.260618 0.275567 0.329224 0.018978 -0.073196 0.274037 0.430318 0.458583 0.102877 0.849895 0.864807 -0.228668 0.336561 -0.413847 -0.012482 -0.347900 0.195229 0.563633 0.282367 -0.053627 0.161573 -0.308176 0.760260 -0.229264 0.204221 0.015901 0.161729 0.297879 0.018610 -0.524076 0.887574 0.456980 0.477462 -0.490086 -0.223310 -0.667543 0.183299 0.950433 -0.138217 0.219625 0.547925 -0.558393 0.266865 0.415396 0.586878 -0.161682 -0.759653 -0.551204 -0.369839 -0.363599 0.079433 -0.428309 0.410703 -0.226244 -0.092213 0.518846 0.350170 -0.300206 -0.172744 -0.186704 -0.185664 0.389563 -0.599888 0.384911 -0.145594 -0.283694 0.365616 0.250430 -0.475617 -0.085853 -0.196244 0.063299 0.230283 0.213853 -0.368411 0.282362 -0.489088 1.207030 -0.108247 0.264083 0.075794 -0.887161 0.096492 0.188521 0.512339 -0.217567 -0.004663 -0.005356 -0.376177 0.320192 0.093482 -0.503509 0.679761 0.290499 -0.293237 0.566930 0.349273
querer 0.237401 0.869914 0.081459 -0.114111 0.056625 -0.014844 -0.680554 0.143820 0.017341 0.378948 0.222050 0.140519 0.455283 -0.470709 -0.188168 -0.429283 0.078802 -0.468300 -0.506327 0.161297 -0.261908 0.188477 0.380973 -0.109929 0.301498 0.026987 0.611259 0.515048 -0.082026 0.369786 -0.196110 0.233489 -0.314432 -0.239390 0.020922 0.142084 0.040944 0.267322 0.363976 0.440139 0.106501 -0.121567 -0.480945 0.144086 -0.321024 0.515004 -0.215164 -0.155608 0.082874 0.757143 0.047692 0.227079 0.514765 0.493778 -0.092408 0.469868 0.064544 -0.519837 0.111929 -0.357946 -0.314684 -0.026676 0.201006 0.496123 -0.367306 0.071815 0.286370 0.063314 0.352360 0.497846 -0.503840 -0.182356 0.292248 0.319968 -0.011458 -0.694120 0.300493 0.073598 0.241463 1.035040 1.987895 0.134231 0.352101 -0.370475 0.078940 -0.893446 0.201803 -0.441038 -0.357125 -0.579596 -0.133615 -0.232913 -0.601538 -0.378133 -0.557067 -0.752305 0.071353 -0.525821 -0.167721 0.412942
reposo -0.447518 0.177103 0.055173 -0.155535 0.413145 -0.083409 0.017496 -0.169882 -0.189778 0.198565 0.154778 -0.100453 -0.198820 0.234742 0.163040 -0.499493 0.073720 -0.420025 -0.003560 0.111561 0.340104 0.842632 0.035668 0.497328 -0.077614 0.114684 0.346810 0.150462 0.098455 0.228871 -0.753279 0.474602 0.398776 -0.009555 0.835373 -0.071636 -0.395877 0.368938 0.210964 -0.470893 0.827793 -0.018089 -0.478706 0.218258 0.071697 -0.388115 0.403321 0.017361 0.217710 0.136322 -0.784603 0.151366 -0.109030 0.229067 0.025677 0.661317 0.269237 -0.191206 -0.122013 0.200512 -0.354638 -0.608797 -0.395825 -0.331470 0.200905 0.015322 0.577994 -0.230865 0.257876 0.389346 0.091157 -0.639626 0.411280 -0.157871 0.536058 -0.177821 0.851773 0.150716 0.874042 0.043386 1.208775 1.095648 0.321133 0.021873 0.083810 0.405691 0.249704 -0.056539 -0.782333 0.022914 -0.207790 -0.022895 -0.115175 0.072839 -0.240713 -0.160979 0.135257 0.020139 0.726467 -0.518898
saber 0.569859 0.769711 -0.061933 -0.078332 0.017495 -0.256855 0.542697 0.384637 0.300300 0.741258 -0.180575 0.212819 0.324241 -0.472286 0.066230 0.248007 0.103772 -0.299315 -0.235395 0.023751 -0.456561 0.154632 0.079703 -0.660375 0.796915 0.636276 1.176524 0.971234 -0.120490 0.436377 -0.276672 0.952881 0.204097 0.126175 0.077188 -0.262123 -0.054737 -0.045287 -0.751258 0.275753 -0.083379 -0.676644 0.030602 0.076136 -0.346627 0.096080 -0.153198 0.599921 0.019435 0.250305 -0.412890 0.431046 -0.309878 0.060406 -0.384976 0.602995 0.546270 -0.620136 0.099620 -0.140264 -0.353755 0.013926 0.505136 0.308309 -0.697483 0.284431 -0.023367 0.075306 -0.029236 0.303103 -0.854867 0.072853 0.178398 -0.200561 0.348410 -0.567084 -0.208309 -0.063990 0.367155 0.080720 2.822931 0.236362 0.193766 -0.308883 -0.098474 0.106230 0.457262 -0.412593 -0.044371 -0.477964 -0.476414 -0.272381 -0.377461 -0.608807 -0.167827 -0.671684 -0.329926 -0.371655 -0.064560 0.216115
sumar -0.366964 -0.227632 0.440645 -0.064487 0.083820 0.215118 -0.641074 -0.289881 -0.099569 0.628664 -0.200296 0.602505 -0.276300 -0.327430 0.007713 -0.022387 -0.055218 0.222831 -0.442204 -0.455597 -0.014005 0.030404 -0.227367 -0.053743 0.656504 0.229339 0.078854 -0.025973 0.266599 -0.422577 0.199145 0.161548 -0.138394 0.394836 0.085377 -0.209348 -0.070747 -0.448815 -0.086345 0.872446 -0.084813 -0.367516 0.089281 0.228992 -0.101941 0.427755 -0.003186 0.180073 0.611777 0.530293 0.130625 0.499537 -0.306919 0.369410 0.141173 -0.080398 -0.314567 -0.367271 0.677022 0.131582 -0.794071 0.290910 0.414217 0.245447 -0.554555 -0.041759 0.221064 0.266567 -0.283500 -0.054897 -0.349470 -0.570839 0.160609 -0.727308 0.334323 0.176359 -0.180762 0.051606 -0.658805 -0.429487 0.961789 0.459748 0.040394 -0.303245 0.326770 0.032836 -0.531023 -0.212896 -0.848549 -0.495278 0.054482 -0.614881 -0.204228 0.242291 -1.333684 -0.184733 -0.470406 -0.362723 -0.209249 0.225715
tomar 0.300168 0.356933 -0.354434 -0.377148 0.314651 0.172163 -0.308654 0.143107 -0.847347 -0.183336 0.129396 -0.255296 0.018149 -0.200481 0.027436 -0.176004 0.377550 -0.342600 -0.163565 0.186372 -0.044639 0.638766 0.054637 -0.476571 -0.423204 0.247191 0.943456 0.971158 -0.395060 -0.097022 -0.456927 0.079789 0.159351 -0.260842 0.588065 0.220410 -0.529418 -0.648660 -1.226999 0.014833 0.694553 -0.731362 -0.551745 0.653298 -0.152111 0.557788 0.423779 -0.030940 -0.027887 0.895753 -0.073538 0.700573 0.530321 0.704338 -0.807644 -0.433917 -0.160662 -0.151078 -0.447766 0.203584 -0.423036 0.226314 0.096250 -0.082736 -0.162159 -0.523899 0.098401 -0.255434 -0.158074 -0.018769 -0.064422 -0.502075 -0.040690 -0.212880 -0.205962 -0.462876 -0.137271 0.169937 -0.360695 -0.153980 2.810039 -0.077963 0.676867 -0.276695 -0.047006 -0.280660 0.620909 -0.136374 -0.154047 -0.569334 0.531158 -0.411162 -0.291624 -0.706913 -0.750507 -0.111648 -0.364334 -0.372686 0.407512 0.205156
triunfo 0.403996 -0.134644 0.679040 0.016067 -0.324564 -0.243652 -0.634768 -0.073895 0.057963 0.186595 0.464896 -0.015277 0.039730 -0.147847 0.380828 -0.153149 -1.390738 -0.130857 0.096861 0.031805 0.465609 0.339626 -0.270474 0.217793 0.072651 0.193714 -0.128707 0.095021 -0.367750 -0.501744 -0.214533 -0.507372 -0.020525 -0.013841 0.062713 0.252329 -0.418954 -0.171998 -1.069634 0.111516 0.155616 0.437016 -0.675315 0.989053 -0.797880 -0.014215 -0.115215 0.536267 -0.032676 -0.282243 0.060753 0.625393 -0.263556 -0.066579 0.027783 -0.151871 0.221290 -0.832285 0.431954 -0.372514 -0.162228 0.135127 -0.836689 0.831727 0.281778 0.329825 -0.631459 0.244934 -0.335675 -0.268654 -0.403681 -0.592081 0.519543 -0.153576 0.451774 0.334070 -0.215424 0.408967 -0.575116 -0.250841 1.625569 0.005748 -0.210733 -0.024823 -0.356576 0.276727 -0.181897 0.461918 -0.439378 -0.100847 -0.423640 -0.228219 -0.695992 0.294761 -0.373255 0.358263 -0.247074 -0.545689 -0.679237 -0.465930
variable -0.103053 -0.331252 0.312722 -0.234346 -0.383363 0.131057 0.753021 0.626094 -0.921527 -0.268861 -0.667229 -0.030500 -1.015014 0.253557 -0.135298 -0.502453 0.236217 1.199684 0.222864 -0.161634 0.561915 -0.114295 -0.067909 -0.067975 -0.006029 -0.023163 0.995429 -0.808283 0.611257 1.206592 -0.941385 0.165611 0.178748 0.610886 0.337664 0.098664 -0.933994 -0.721066 -0.734583 -0.354728 0.395631 0.429429 -0.434476 0.091445 0.295580 -0.438359 1.277926 -0.616222 0.659971 0.118913 0.158718 -0.228143 -0.357716 -0.253778 0.399681 0.154584 -0.636583 0.162063 0.581315 0.859296 -0.560992 -0.415114 0.326463 -0.367223 -0.404676 -0.571489 0.176067 -0.385285 0.017589 -0.458591 0.300369 0.501686 -0.216954 -0.809362 -0.535781 0.082482 0.520082 -0.751397 0.174777 -0.758212 1.165174 -0.098735 0.058487 -1.149687 0.577449 0.313504 0.124599 -0.339631 -0.454647 -0.316832 0.099360 0.028465 -0.017763 -0.168763 0.760146 -0.543773 -0.613285 -0.480166 0.350545 -0.563450
volver 0.081656 0.425968 0.318806 -0.784420 -0.166620 -0.259858 -0.611035 -0.056939 -0.450773 -0.005701 -0.211857 0.289515 0.142750 -0.126860 -0.444883 -0.031618 0.278004 -0.557760 -0.756559 0.130860 -0.135651 0.494651 0.027729 -0.205746 0.168168 -0.226518 0.802566 0.834929 -0.515878 0.297773 -0.616641 0.305485 -0.187728 -0.537885 0.077040 0.191895 0.174891 -0.362951 -0.944402 0.157928 0.663411 -0.606832 -0.024798 0.245809 -0.386484 0.638748 -0.234011 -0.141249 -0.365624 0.710089 -0.621113 0.403479 0.182231 0.521360 -0.637229 -0.143410 -0.407630 -0.252321 0.541536 0.276791 -0.003579 0.541260 -0.512358 0.479023 -0.129743 0.102552 -0.148469 -0.325261 0.311587 0.583664 -0.548226 -0.023787 0.639319 0.354948 0.223955 -0.468294 0.424716 0.101322 -0.688036 0.666382 2.652710 0.419572 0.299490 0.018532 0.216203 -0.793642 0.021994 -0.284966 -0.123602 -0.595588 0.172476 -0.444759 -0.163170 -0.224244 -0.449768 -0.549555 0.083732 -1.054372 -0.470419 0.335507
mucho 0.081817 0.451146 0.182107 -0.411614 -0.191296 -0.607937 0.303119 0.092728 0.156423 -0.403484 0.337962 0.050598 -0.451391 -0.401588 -0.589007 -0.404533 0.231431 0.235679 0.275292 -0.012179 -0.681414 0.248550 -0.103968 -0.131295 0.639227 0.641853 0.030761 0.492147 0.475401 -0.121325 -0.553356 0.181537 1.072041 -0.028518 0.108731 -0.205803 0.043631 0.559727 -1.014123 0.158821 -0.233280 -0.413573 -0.206594 0.430670 -0.761498 -0.191180 0.367318 -0.308706 -0.309906 0.376798 -0.365344 0.270575 -0.289911 -0.415166 0.013412 -0.849900 0.091338 0.165379 -0.179210 0.135305 -0.371747 0.753861 0.603183 0.144014 -0.206493 0.032140 -0.033229 0.001645 -0.003031 -0.490166 -0.452380 0.163836 0.142400 0.176129 0.625412 -0.445066 0.238752 0.175460 1.034085 0.512573 3.680942 0.106933 -0.397457 -0.298325 0.142674 -0.032374 0.214064 0.090792 -0.786796 0.096151 0.133395 0.187996 0.182338 -0.552325 -0.057300 -0.519301 -0.065996 0.351053 -0.321485 0.710592
tedioso 0.111425 -0.289113 0.881807 0.487837 0.130885 -0.328061 -0.211722 -0.516853 0.024628 -0.116823 0.167692 0.362193 -0.609931 0.379404 -0.645179 0.552620 -0.251285 -0.264373 -0.280802 0.160272 0.361770 0.197929 0.407201 0.458427 -0.144980 0.877650 0.346306 -0.268291 0.598208 0.425168 0.592131 0.324669 -0.137137 -0.284915 -0.892786 0.415460 0.103357 -0.153438 0.439766 -0.277578 0.521108 -0.741936 -0.377488 0.367359 -0.588140 0.318812 0.052963 -0.040122 -0.031181 -0.648814 -0.191045 -0.364670 -0.262560 -0.365493 0.138077 0.432223 1.062046 0.333837 -0.262503 0.529053 0.122473 0.688404 -0.016904 0.214761 0.913755 -0.400702 0.716352 0.574749 -0.015188 0.559298 0.304324 0.272080 -0.387138 0.843714 -0.064608 0.029757 0.460568 0.429972 0.574446 0.650165 -0.395939 0.257057 0.753536 -0.517575 -0.085035 0.323025 -0.375238 0.300380 -1.105247 -0.996284 -0.452328 -0.942605 0.033003 -0.134621 0.133115 -0.172804 -0.455820 0.215800 0.190698 0.025043
terminar -0.227743 0.221331 0.150664 -0.147745 0.140748 0.100254 -0.339893 -0.752292 -0.271624 -0.055865 0.513108 0.502162 0.158643 0.229298 -0.169846 -0.277857 -0.146796 0.063259 -0.750385 -0.278264 0.160137 0.508265 0.262739 -0.506665 -0.095028 0.334178 0.171400 -0.031952 0.129523 -0.144911 -0.028334 0.575951 0.129612 -0.225196 -0.011425 0.063114 -0.315446 -0.167030 -1.160046 0.508064 0.486142 -0.184449 -0.157353 0.597736 -0.004038 0.570520 -0.267664 0.280373 -0.572286 0.191912 -0.096055 0.150132 0.095327 0.093038 -0.570910 0.176337 -0.547909 -0.686949 0.209356 0.215974 -0.196900 0.579324 -0.191453 0.424476 -0.139286 0.200767 -0.545656 -0.116836 -0.106069 0.446622 0.226399 -0.657127 0.465359 -0.638739 0.299817 -0.572050 0.360919 0.563139 -0.550118 -0.030205 1.681170 0.300972 0.721843 0.377540 0.219563 -0.740228 -0.244132 0.391173 -0.511758 0.080392 -0.295686 -0.565573 0.336921 -0.000329 -0.462886 0.064318 0.210750 -0.604030 -0.304680 0.558724
admitir 0.436398 0.192637 0.124662 -0.445600 0.013496 0.356308 -0.450357 0.345944 -0.018159 0.277252 -0.280902 0.638597 0.221633 0.102788 -0.303253 0.007445 -0.183629 -0.250620 -0.267882 0.063838 0.115522 0.796888 0.213948 -0.090127 -0.120738 0.418540 -0.346211 0.424690 0.240046 -0.032473 0.133962 0.060787 -0.244587 0.411091 -0.044555 0.634036 0.102942 0.019239 0.187440 0.256322 -0.207848 -0.483091 -0.002354 0.053043 -0.154170 0.719337 0.146664 0.122729 0.068341 0.217832 -0.214740 0.418738 -0.088662 0.085238 -0.331909 0.263550 0.230138 -0.196129 0.289921 -0.067174 -0.261866 -0.410542 0.289632 0.575209 -0.302337 0.078133 0.403665 0.291149 0.130602 -0.062277 -0.351298 -0.410878 0.184474 -0.087252 -0.184457 -0.587198 0.028400 -0.138196 0.185512 -0.268253 1.244236 -0.211034 0.302837 -0.358375 0.349540 -0.933473 0.367782 -0.374930 0.126563 -0.252866 0.170555 -0.293329 -0.415746 0.338541 -0.621526 -0.454935 0.128524 0.004167 0.401208 -0.017478
abreviar 0.727014 -0.027652 0.285837 0.717408 0.306285 0.198161 -0.545758 0.066571 0.205040 -0.242185 -0.069604 -0.209400 0.723658 0.242736 -0.098357 0.196980 0.182852 0.131714 -0.503916 -0.285873 0.401879 0.287776 -0.053116 0.076554 0.011019 0.463421 0.668888 -0.186104 0.181970 0.866904 0.277755 0.040264 0.226511 -0.526492 0.153273 0.514347 -0.489563 0.240308 0.597741 0.182672 -0.840015 -0.636331 -0.182851 0.857724 0.264919 0.614574 -0.010211 0.084988 0.151420 0.680793 0.004755 0.142438 -0.291775 0.131089 -0.253005 0.111580 0.109256 -0.344494 -0.078017 0.497829 -0.292420 -0.035266 0.347105 0.204848 -0.276286 -0.120982 -0.173237 0.233730 -0.279638 0.504785 -0.175561 -0.072790 -0.217533 -1.118230 0.346862 -0.116000 0.331342 0.259881 -0.155265 0.185686 -0.135141 0.731011 0.463264 0.178863 0.057988 -0.005662 0.654403 0.409705 -0.460449 -0.628303 -0.118443 -0.262253 -0.780183 0.213588 -0.171599 -0.550020 0.112037 0.090067 -0.389490 0.346956
contemporáneo 1.321513 0.554291 0.662666 -0.234257 0.850830 0.278806 0.818839 -0.686365 -0.223512 0.012718 0.777423 -0.875802 0.247162 0.199403 -0.946624 -0.044453 -0.383167 0.940350 -0.175423 0.181012 0.404270 -0.760878 0.365367 0.951095 -0.011756 0.262212 1.068914 0.023331 1.089438 0.294466 0.867952 -0.633703 0.149300 -1.037582 -0.149940 -0.863166 -0.190568 1.155776 -3.599295 -0.255955 -0.832502 -0.222549 0.148983 -0.197568 0.562879 -0.778265 -0.825349 -0.646375 -0.387544 0.294296 0.701927 -0.049825 0.493733 0.000627 0.470570 -0.880441 -0.700961 -0.275130 -0.112377 -1.163258 -0.179209 0.059536 0.430865 -0.239686 0.046368 0.910666 -0.525196 -0.117602 0.093976 0.552245 0.418622 0.495855 0.155514 0.392300 -1.096458 -0.449662 0.427457 -0.269928 1.279526 -0.006842 -0.148945 0.351413 -0.218027 -0.651168 -0.106478 -0.134139 0.660379 0.099463 0.299032 -0.913058 -0.475900 -0.783818 -0.083598 -0.335290 -0.347607 0.846001 0.875518 0.223473 1.075350 0.352049
notar 0.396447 0.460968 0.164213 -0.125812 -0.080212 -0.220497 0.071676 0.467634 0.469505 -0.247592 -0.389596 -0.014096 -0.240397 0.150204 -0.028659 -0.180174 0.619967 0.030943 -0.041929 -0.165977 0.299558 0.421379 -0.102676 -0.259480 0.421593 0.279815 0.280918 -0.420961 0.119269 -0.077532 -0.196488 -0.251002 -0.003660 0.416970 -0.055678 -0.012550 -0.385190 0.009189 0.294725 1.046831 -0.340245 -0.446377 -0.123867 -0.191680 -0.872410 0.327726 -0.607561 0.023937 -0.095880 -0.428419 -0.286173 0.250079 -0.108272 0.264691 0.054019 0.186478 -0.012362 -0.205975 0.141870 0.444111 -0.253546 0.449231 0.899124 0.172275 -0.273346 0.175256 0.138017 0.095094 0.074830 0.031621 -0.337114 -0.088941 0.199823 0.061986 0.343869 -0.413492 0.089264 -0.081707 0.244412 0.776299 1.862332 -0.327518 0.084535 0.037237 0.088901 -0.019861 0.123665 0.159938 -0.134143 -0.189144 -0.070086 -0.020262 -0.020455 0.137586 -0.516115 -1.157631 -0.396358 0.280324 0.210927 0.187098
nervioso -0.067087 0.040608 0.224808 -0.966219 -0.788275 -0.655207 0.212590 -0.983989 0.558476 -0.121717 0.056110 -0.688693 -0.380555 -0.182173 -0.388486 1.033534 0.048387 -0.516667 0.077361 0.928751 0.325012 0.076690 -0.946490 0.736160 0.425086 0.477074 -0.100488 0.140490 1.388249 -0.522715 -0.991731 0.175418 0.349913 -0.179632 -0.001822 -0.289997 -0.590407 1.064953 0.065035 0.176939 -0.733601 -0.445238 -0.087222 -0.098113 -0.364992 0.467740 0.459401 0.439745 0.262002 -1.286441 0.034744 0.439419 -0.321900 -0.010971 0.517411 1.007197 -0.471668 1.533196 -0.395234 0.193040 1.154707 -1.063137 -0.356665 0.077457 0.160902 -0.325189 1.132790 -0.127268 0.043568 0.698463 -0.320680 -0.083624 -0.832769 0.342286 0.046277 -0.620286 0.017987 0.443459 0.754287 0.444177 1.125755 0.114594 0.360807 0.063764 -0.121355 0.461952 -0.200926 0.807483 -0.166565 -0.632104 0.815228 0.274368 0.117876 0.505381 0.246471 -0.606053 0.106993 -0.409822 0.238007 -0.378731
elevación -0.036881 -0.458657 0.410001 0.869528 0.237787 -0.410512 -0.204441 -0.156654 0.084048 0.236742 -0.486198 0.182647 0.770530 -0.578770 0.948812 -0.786438 -0.064529 0.834293 0.344588 -0.654263 -0.286149 -0.033820 0.052703 0.095742 -0.044719 -0.089480 -0.443540 -0.392090 0.534940 0.522439 -0.135786 -0.420775 0.827556 -0.273365 0.319466 0.270402 -0.609246 -0.441959 -0.506781 0.425768 -0.254484 0.588935 -0.365307 0.967350 -0.135193 0.154146 0.222058 0.119175 0.469279 -0.716696 0.203958 0.355233 -0.279335 0.089380 -0.503088 0.464730 0.268588 0.137223 0.108394 0.627155 -0.073578 -0.414010 -0.900522 -0.644877 -0.049712 -1.128536 0.340678 -0.379544 -0.136588 -0.745535 -0.102714 -0.762170 -0.181896 0.322080 0.357554 0.167220 0.830737 0.133859 0.675932 -0.258851 1.251277 0.123680 0.384807 0.140702 0.193470 0.228969 -0.265150 -1.380973 -0.365042 0.339172 -0.869103 -0.068797 -0.269019 0.409593 -0.165376 -0.266276 -0.221772 -0.203602 0.503479 -0.129584
agrandar -0.032353 -0.283695 -0.107007 -0.281039 -0.112532 -0.209811 -0.471143 0.272781 -0.089398 0.530882 -0.539531 0.086098 0.251567 0.296976 -0.119320 -0.038822 0.554423 -0.089549 -0.065470 -0.481400 -0.142952 -0.226309 -0.020821 -0.290929 0.065540 0.315465 0.058643 -0.315921 -0.558305 0.233156 0.276542 -0.010546 0.320580 -0.489975 -0.051808 0.712359 0.371858 -0.002286 0.783320 0.387109 0.204401 -0.836043 -0.396753 0.400020 0.090779 0.288284 0.011135 -0.145454 -0.131151 0.527052 -0.187637 -0.284977 0.340171 0.175143 -0.120402 -0.016733 0.259479 -0.079838 -0.892697 -0.017945 0.331906 0.165369 0.016229 0.256940 -0.179076 0.100897 0.063505 -0.103804 0.400349 0.150127 0.615820 -0.715704 0.294875 -0.181539 0.570739 -0.027961 0.245182 0.560981 0.122295 0.182855 -0.471906 0.399692 -0.305419 -0.107142 0.408596 -0.079240 -0.066565 0.235880 -0.459293 -0.924672 0.039907 -0.415304 0.036910 0.193614 -0.195159 -0.431443 0.175533 -0.173154 -0.020897 0.337118
malestar 0.309609 0.345087 -0.131197 0.085208 -0.418420 0.022570 -0.192184 -0.203409 0.703584 0.231941 -0.005271 -0.403077 0.008164 -0.722094 0.126165 -0.754172 -0.175839 0.042286 0.183931 -0.200875 0.780411 -0.377460 -0.261315 -0.105292 0.309634 0.947302 0.375808 -0.394309 -0.114837 -0.473803 -0.031352 -0.288562 0.136292 0.297305 0.525150 0.467516 -0.204202 0.420483 0.389982 0.116189 -0.163688 0.156070 -0.355772 0.203304 -0.654270 0.240233 0.368493 -0.157617 -0.441552 -0.759158 -0.444398 0.272654 0.225402 0.258859 0.431328 0.304224 0.227795 1.171701 0.332237 0.439955 0.700900 0.192048 -0.112632 0.374273 0.014728 -0.300847 0.275869 -0.522113 -0.325243 -0.005160 -0.709831 -0.551890 0.465947 -0.490744 -0.274127 0.618105 0.365185 0.541609 0.888448 0.484708 0.863895 0.420628 -0.772558 -0.053367 0.028263 0.162337 -0.248988 0.235485 0.598562 -0.000698 0.445030 -0.123701 -0.241820 -0.166814 -0.114276 -0.036003 -0.535794 0.249945 0.822881 -0.126900
idóneo 0.292657 0.319874 0.277606 0.587123 -0.298867 0.789545 -0.810021 0.600043 0.025859 -0.071476 0.220527 0.006460 -0.167608 0.333141 0.467927 0.414882 0.844056 -0.346191 -0.397579 0.147948 0.546393 0.001249 0.061251 1.254313 -0.438404 -0.357916 1.514899 -0.609296 0.031023 -0.276437 0.261040 -0.095200 -0.157864 -0.197738 0.119886 0.520136 0.004065 0.230628 0.276029 0.529743 0.306720 -1.088737 -0.084731 0.457839 0.767261 0.888776 -0.930374 -0.556486 0.275025 -0.072894 0.087785 -0.159030 -0.018144 -0.580736 -0.293924 0.428779 0.747716 -0.483949 0.108978 0.310505 0.144725 -0.291736 -0.938406 0.157761 -0.308847 -0.833823 0.121475 1.031815 -1.644502 -0.223197 -0.103423 0.449277 -1.012797 -0.325169 0.216591 -0.274913 0.438495 -0.031569 0.823121 0.532943 0.815330 0.817549 -0.170414 -0.370104 -0.806464 0.549058 -0.681694 0.767676 -0.768125 1.010826 0.033415 -1.295832 0.736700 0.613637 -0.238527 -0.442999 -0.145651 -1.301277 1.136173 0.006490
calma 0.368911 0.130773 0.183492 -0.673632 -0.167434 -0.264060 0.127008 -0.112619 0.430933 0.147531 0.149730 0.120694 0.350116 -0.012257 0.075365 -0.326679 0.453176 0.051932 0.602229 -0.048506 0.203788 0.565400 0.029068 0.627400 -0.081810 -0.245758 0.270782 -0.274666 0.057713 -0.234496 -0.802687 0.811488 0.010435 -0.302142 1.053697 -0.110009 -0.237700 0.346608 -0.137619 -0.001294 0.278047 -0.176519 -1.158753 0.487823 -0.384627 0.006915 -0.031856 -0.209446 0.251333 0.099862 -1.045284 0.267603 -0.201061 0.055447 0.258675 0.127915 0.348133 0.498565 0.487067 0.440624 -0.138381 0.016409 0.145468 -0.022774 0.590784 0.051248 -0.420939 -0.496050 0.035764 -0.446100 -0.218643 -0.633275 0.941332 -0.149267 0.695191 0.165349 0.687214 0.189038 0.221978 0.497725 0.835695 -0.323931 0.561952 0.397398 -0.086526 0.061738 0.444828 -0.701609 -0.409033 0.199970 -0.326637 0.513073 -0.358887 -0.279772 0.422444 -0.111811 0.262017 -0.360484 0.197018 0.336855
económico 0.069746 0.174566 0.629558 -0.856159 -0.758717 0.363831 0.104340 0.271974 0.284331 0.680774 0.311472 0.067129 0.152956 0.267365 -0.466098 -0.418394 -0.289922 -0.686509 -0.339964 -0.480108 0.479010 -0.577633 -0.319609 -0.186127 0.892115 0.877320 0.249065 -0.009620 -0.331464 0.129021 -0.712765 -0.395719 0.622969 0.819986 0.073001 -0.706739 -0.159924 -0.383783 -2.164901 -0.378955 0.270836 -0.659310 -0.009626 0.283842 -0.802732 -0.280028 0.264268 -0.031378 0.258564 -0.571777 0.036986 -0.283897 -0.196929 0.235165 -0.083784 -0.246691 0.095634 0.870827 -0.417984 -0.009690 -0.161316 0.029854 -0.282090 0.662040 0.702566 -0.346903 0.787554 0.629534 -0.970528 -0.117091 -0.325073 -0.732330 0.012163 -0.480500 0.014354 -0.029936 0.035010 0.227761 0.747291 -0.607991 1.429623 -0.429789 -1.253014 -0.255528 0.534670 -0.672690 -0.398481 0.953926 -0.654176 -0.129900 0.312694 0.022937 0.316157 0.984041 0.372009 0.816731 0.028888 -0.449596 0.977463 0.376472
combate -0.481225 0.129948 -0.390281 0.730564 0.356025 -0.225718 0.067827 -0.719744 0.447717 0.033491 0.906629 -0.350102 -1.032956 0.249007 0.867786 -0.480679 -0.117606 -0.139530 0.423942 0.259228 -0.205403 -0.164178 -0.301300 0.185425 -0.027285 0.179640 0.201876 -0.170622 0.368116 -0.500367 0.098845 -0.494959 0.151428 0.445446 0.071290 0.102218 -0.979931 0.245028 -1.228404 -0.135863 -0.238125 -0.013636 -0.610526 0.964534 -0.364049 0.073061 -0.391668 0.717957 -0.201430 0.354186 -0.662257 0.798478 0.431301 -0.497666 0.009308 0.168436 -0.335245 0.184174 -0.336258 -1.081154 -0.353201 0.372277 -0.340760 -0.408200 -0.228361 -0.315243 -0.461814 0.234058 -0.114350 0.046877 0.557894 -0.211952 -0.005386 -0.234128 -0.273118 -1.111249 0.474517 -0.045239 -0.069772 -0.243332 1.898394 0.493366 0.746433 -0.968619 -0.443046 -0.004537 -0.273434 0.157818 0.050631 0.566020 0.346068 -0.227050 -0.134443 0.259518 -0.769934 0.699412 0.567540 -0.882370 -0.278273 -0.602146
hermoso -0.087764 -0.014887 0.580686 -0.200837 -0.180380 -0.177969 0.787321 -0.049074 0.513360 0.680405 0.162516 -0.551154 -0.680260 -0.110824 -0.429010 0.151455 -0.214218 0.029136 0.337330 1.177474 -0.452374 -0.126026 -0.434280 0.102515 -0.032697 -0.584116 0.796989 0.282793 -0.778737 0.446048 -0.184838 0.328713 0.304828 -0.079283 -0.062602 -0.185789 0.599692 0.252011 -0.642681 -0.469844 0.270265 -0.273005 -0.545268 0.499902 -0.129819 -0.141192 -0.395979 0.124723 -0.232159 -0.561656 -0.058146 0.315054 -0.385955 0.416901 -0.161892 0.061792 0.944744 -0.531587 0.536856 0.226651 0.702240 -0.342296 0.277646 0.200559 0.076443 0.246385 -0.302477 -0.021096 0.464607 -0.041980 0.188195 -0.111764 0.178759 0.659598 0.810009 -0.478429 0.526117 -0.218212 0.847548 0.636363 1.023354 -0.042922 -0.297028 0.217811 0.117341 0.460647 0.187961 0.022962 -0.791766 -0.138908 -0.164351 -0.312439 -0.643340 0.196096 -0.127477 0.473619 -0.235139 0.040318 -0.287330 -0.540397
caliente -0.003326 -0.062383 0.104312 0.021956 0.449662 -0.022994 -0.154035 0.079760 0.553299 -0.148569 0.449276 0.173896 0.018405 -0.268478 0.716500 -0.004484 0.407574 0.001378 0.227383 0.546250 -0.120442 -0.235488 -0.545746 0.434665 -0.561483 -0.057175 -0.008127 0.014080 0.556861 0.279822 -0.496761 0.314714 0.082077 -1.340316 0.629113 -0.742603 -0.727542 0.025550 -0.665298 -0.396372 0.441003 -0.307050 0.791896 -0.070774 0.101718 -0.221198 0.610956 -0.184418 0.041046 0.041630 -1.093327 0.251618 -0.112070 0.483531 -0.264176 -0.356775 0.384243 -0.256375 0.338074 -0.483706 0.281416 0.069927 -0.007229 -0.479418 -0.120567 -0.927109 0.278364 0.088723 0.050988 0.213032 0.402059 -0.028432 -0.290629 0.427660 -0.440278 -0.252880 1.301274 0.681878 1.092585 0.313900 1.158472 -0.198641 1.236837 0.542318 0.386941 0.772815 -0.294074 0.110238 -1.135095 -0.107385 0.150756 -0.110478 0.267882 -0.490911 0.678948 -0.119739 -0.418706 0.248183 -0.433013 -0.384061
atenuar 0.419372 0.581741 0.105400 -0.051775 0.037958 -0.575979 -0.304759 0.527237 0.468604 -0.060127 -0.066936 -0.220836 0.316973 0.661510 -0.340072 -0.584070 0.247218 -0.008834 0.041646 -0.476725 0.299012 -0.139251 -0.080672 -0.128622 -0.178722 0.419813 0.216858 -0.652638 -0.297206 -0.343325 0.332017 0.223256 -0.198017 -0.259828 0.167677 -0.014173 -0.433068 0.316786 0.624609 0.493876 -0.157822 -0.052212 0.065199 0.469377 0.238188 1.411707 0.686421 -0.147895 0.474344 0.417875 0.084744 0.177723 0.717295 0.019393 0.132831 0.026957 0.236456 0.058562 -0.502879 0.486054 -0.079979 -0.276705 -0.060895 0.428523 -0.315061 -0.033815 0.033010 0.333584 -0.826200 -0.443164 0.130307 -1.138905 0.511602 -0.545210 0.254870 -0.162453 0.880453 0.630405 0.004689 -0.045860 0.140253 0.156356 0.194366 -0.431702 0.465825 -0.263494 0.200678 0.349615 -0.607909 -0.332884 0.143656 -0.258299 -0.319729 -0.056202 0.138782 -0.551118 0.290819 0.201163 -0.194096 0.415650
medio -0.041044 0.058359 -0.000034 0.425527 -0.413009 -0.127146 0.266380 0.205250 0.705220 0.165528 0.749256 -0.059066 0.187902 0.165215 -0.064992 0.504765 0.113117 -0.667751 0.636395 -0.142237 0.117721 -0.394018 -0.300556 -0.137350 0.244015 -0.080224 -0.023690 0.352201 -0.075485 -0.210437 -0.196993 0.227724 0.383270 -0.582684 0.583280 -0.101711 0.122379 -0.324796 -2.472417 0.214400 0.648906 0.354317 -0.236542 0.508362 0.597072 0.349779 -0.185081 -0.261445 -0.290910 -0.171572 0.040820 -0.262782 0.533380 -0.557161 0.220425 -0.113051 0.410295 0.350204 0.478654 0.151749 -0.126209 -0.348679 -0.089505 -0.520724 -0.179502 0.291219 -0.129412 0.300226 -0.164827 0.175310 0.156530 0.143137 -0.175080 0.205912 0.025855 0.180903 0.821703 -0.013412 1.145556 -0.431086 3.074460 0.338396 0.124558 0.144463 -0.677724 0.247370 -0.262528 0.304529 -0.410592 0.110371 0.367650 -0.634041 0.562442 -0.009961 0.212515 0.155682 0.052932 -0.931183 0.551855 0.316279
obstruir 0.600780 0.170811 -0.488585 -0.149434 -0.009542 -0.108927 -0.593646 -0.316611 0.016733 0.043972 -0.127284 0.080667 0.748252 0.674320 -0.256968 0.052432 0.182754 -0.007829 -0.459224 -0.449817 -0.030528 0.219782 -0.831412 -0.096226 -0.608566 0.197127 -0.415306 -0.589569 -0.335111 0.035593 -0.044092 -0.357374 0.068893 -0.331226 -0.128121 -0.403426 0.195797 -0.168264 0.141151 0.680292 -0.627601 -0.181360 0.159214 0.824756 0.174214 1.565006 0.374917 0.268638 0.039965 0.407006 -0.177844 0.409483 0.237265 0.455021 0.361055 0.298697 0.836619 -0.484690 0.110294 -0.014780 0.045021 -0.283645 -0.274933 0.197854 -0.306911 -0.186134 0.525875 0.501170 0.221063 0.605184 -0.410138 -0.281274 -0.206019 -0.134329 0.061772 -0.323667 -0.020238 0.498858 -0.050240 0.348230 -0.344665 0.677750 0.751596 -0.672154 -0.215463 -0.226559 0.368833 0.475613 -0.403888 -0.915334 -0.260233 -0.027908 -0.263847 0.526724 -0.108066 -0.586075 0.213935 -0.274775 0.308814 -0.439707
luminoso -0.084059 -0.029768 0.037024 -0.218611 -0.353192 -0.381247 0.364845 0.036915 0.388350 -0.054303 -0.303889 -0.703256 -0.603499 0.101082 -0.741198 -0.067090 -0.752246 -0.125011 0.124709 0.056190 0.980171 -0.126505 0.402414 0.407920 -0.003782 0.240680 0.873007 -0.539462 -0.399301 -0.233956 -0.225635 -0.140436 0.208951 -0.515820 0.222123 -0.201205 0.085971 0.307975 0.348718 -0.948510 0.199459 -0.202958 0.190785 0.158685 -0.514597 0.276777 0.287692 -0.377508 0.297296 -0.187874 -0.344987 0.158480 -0.065219 0.177300 0.304554 -0.006811 0.187156 -0.524081 0.024543 -0.162924 -0.134489 -0.224150 -0.130912 -0.619975 0.308700 0.282151 0.387067 -0.103368 0.114806 0.564974 0.350668 -0.393394 -0.084847 0.289880 -0.087335 -0.214149 0.097124 -0.287644 0.554002 0.412064 0.759137 1.154060 -0.137230 -0.087300 0.022287 0.674234 -0.241279 0.649602 -0.557912 0.013362 -0.089830 -0.294777 -0.458463 -0.154842 -0.482752 0.233251 -0.111089 -0.074524 -0.450992 -0.971621
confortable 0.321986 -0.112834 0.216162 0.133017 0.234611 -0.045015 0.025904 -0.228179 -0.286159 0.030590 0.886908 0.221372 0.500084 -0.191528 -0.321790 -0.215080 0.656839 -0.134279 0.699956 -0.272320 0.184690 0.460868 0.403443 0.295820 -0.586174 -0.635591 0.324882 -0.881761 -0.129852 0.087017 -0.703192 0.098426 0.082798 -0.564506 0.681734 0.088027 0.082142 0.386412 0.690948 -0.408052 0.428384 -0.132186 -0.295191 0.058233 -0.096725 -0.344882 0.265541 -0.194252 -0.432288 -0.451459 -0.892407 -1.048789 -0.010241 -0.355281 0.236833 -0.531087 0.577772 0.400998 -0.535719 0.128803 -0.189304 0.393614 -0.170690 -0.116766 -0.058871 -0.297097 -0.362786 -0.275032 -0.101715 0.348996 0.267563 -0.252214 -0.796562 -0.068855 0.247303 0.531916 0.715894 -0.173950 0.648609 -0.014855 -0.073745 0.059623 -0.341239 -0.589831 0.294679 0.239146 0.141630 0.343902 -0.753484 -0.255614 -0.744744 -0.196264 -0.554723 0.172629 0.177378 0.121915 0.281286 -0.781448 0.030533 -0.111923
entero -0.535671 0.207303 0.740054 -0.190367 -0.466375 -0.343848 0.183993 -0.140933 -0.448288 0.169141 0.563556 -0.064525 -0.056712 0.041038 0.156772 -0.239012 -0.665367 0.300975 -0.219582 0.241952 0.235209 -0.121915 0.376011 -0.036501 0.608676 -0.097813 0.410897 0.199730 0.280767 0.795084 -0.493883 0.152849 -0.186243 0.508578 0.310470 0.257911 0.418001 0.042589 -0.081474 -0.230402 0.372001 -0.298275 0.051032 0.602768 0.559594 -0.301983 0.357275 0.346588 0.186298 0.411245 -0.203116 -0.603234 -0.699902 0.596989 0.646544 0.298298 -0.064351 -0.235665 0.824656 0.102547 -0.179189 -0.159220 -0.388990 0.047224 0.091118 0.066336 0.405401 0.371644 0.201834 0.142845 0.155482 0.054718 -0.129479 -0.489673 0.457458 0.261832 0.405757 -0.338483 0.615466 0.324324 1.814559 0.723159 -0.030059 -0.043200 -0.254392 0.716101 -0.720114 -0.175573 -0.400307 -0.806388 0.214246 -0.162396 0.078196 -0.070954 -0.228294 0.343361 -0.160593 -0.296141 0.013200 -0.385170
adquirir 0.422097 0.140253 -0.181403 0.085479 0.650112 -0.251035 0.041164 -0.328481 -0.269786 1.273042 -0.867945 -0.198842 0.305815 -0.112330 -0.385285 -0.146339 0.292274 -0.015788 -0.139426 0.028180 -0.213045 0.268900 -0.650005 -0.508469 -0.510953 0.112306 0.405400 0.115939 -0.199383 -0.263115 -0.252923 0.449560 -0.003212 0.616353 1.223191 -0.155755 0.125307 -0.149947 -1.225676 0.752588 0.087285 -0.496910 0.476482 0.460938 0.097723 -0.352533 0.315915 -0.197709 0.324953 0.418438 -0.597832 -0.253678 0.582344 0.606249 -0.516055 -0.267422 0.419454 -0.057519 -0.301561 0.577618 -0.158207 0.150732 -0.283126 0.382642 -0.180657 0.577952 0.021349 0.097153 -0.714026 -0.560698 -0.579217 -0.070886 -0.741204 0.879821 -0.020758 0.012291 -0.213558 -0.001437 0.103248 -0.492059 1.566887 -0.729947 -0.166526 -0.643593 -0.066446 -0.703412 -0.748275 0.073978 -0.939029 -0.710373 0.342678 -0.857078 0.343610 -0.402442 -0.509544 -0.641371 0.382236 -0.240503 -0.009541 0.573748
seguir 0.049735 0.238820 -0.246943 -0.093278 -0.028188 -0.410888 -0.556488 0.330561 -0.539303 0.024338 0.272124 0.135975 0.403886 0.312975 0.009640 -0.939318 0.229141 -0.498113 -0.795956 -0.623675 0.029401 0.381446 -0.379975 -0.968815 -0.289516 0.022048 0.244492 0.547076 -0.486675 0.413189 -0.544217 0.041148 0.392590 -0.330599 0.378743 -0.352893 0.310431 -0.623929 -1.163425 -0.047662 -0.032849 -0.889858 0.018582 0.634081 -0.706795 0.316097 -0.015924 0.453144 0.121819 0.555439 0.020402 0.200998 0.752053 -0.251455 -0.600423 0.482704 -0.535698 -0.751865 0.048529 0.126179 0.141621 -0.020196 0.103597 0.407684 -0.400533 0.772669 -0.011740 -0.802217 -0.321094 0.317715 -0.351892 0.457707 -0.102831 0.221899 0.054090 -1.075329 0.334232 0.304947 0.660730 -0.480941 2.413021 0.029745 0.073421 0.357103 0.562421 -1.002920 -0.328288 0.404764 -0.390816 0.154808 -0.373047 -0.438726 0.292043 -0.225557 -0.409987 0.219740 -0.193710 -0.291963 -0.285685 0.956323
inventar 0.161239 -0.102594 -0.172768 0.194967 -0.283674 0.245300 -0.605204 0.491795 0.212192 0.303205 0.114934 0.364132 0.030718 -0.330563 -0.643261 0.239265 0.151805 -0.009964 -0.261367 0.294061 0.006238 0.328617 -0.232218 0.218795 0.046885 0.346321 1.079038 -0.158942 -0.248791 0.123477 -0.288971 0.045861 -0.570637 0.050268 -0.207464 0.605652 0.160980 -0.040122 0.389619 0.271085 -0.389736 -0.529608 0.088481 0.312743 0.335237 0.321190 -0.187553 0.185735 0.193255 0.332741 0.088951 -0.352503 0.422993 0.477799 0.157703 0.156660 0.336653 0.499825 -0.291249 -0.426905 0.210272 0.200297 -0.054339 0.075948 -0.572768 0.194529 0.352249 0.254112 -0.117412 -0.158307 -0.712688 0.020367 -0.348199 0.373378 0.315897 -0.490396 -0.020521 0.006318 -0.603428 0.040815 0.652052 -0.299721 -0.020617 -0.904931 0.207221 -0.914178 0.076825 -0.037847 -0.430117 -0.541906 0.228895 -0.244188 -0.532571 -0.351629 -0.163866 -0.145826 -0.471513 0.126627 -0.348234 0.328175
despoblado -0.843710 -0.336154 0.514412 0.230167 0.235487 0.818004 -0.428289 0.221124 0.202731 -0.465620 0.137050 0.500094 -0.364407 -0.424987 0.464977 0.200988 -0.258832 0.016231 0.527466 -0.012860 -0.209444 -0.437264 0.288317 0.588634 0.004627 -0.318295 -0.552467 -0.417368 -0.691183 -0.030446 0.432287 -0.130627 -0.085992 0.078253 -0.040380 0.215533 0.404327 0.430682 0.465636 0.302553 1.445959 -0.002332 -0.606619 -0.061669 -0.165150 -0.252153 -0.510140 0.327473 0.371634 -0.504454 0.801312 -0.662740 -0.459641 0.844221 0.023443 0.011913 -0.383414 -0.194434 0.407984 -0.013944 0.025997 0.392067 -0.476586 0.192698 0.284200 -0.325519 -0.277703 -0.545850 0.092592 -0.681874 0.186246 -0.145470 -0.523894 -0.054799 -0.389459 -0.197871 1.309198 -0.721538 0.425601 0.603138 0.348161 0.278446 0.459284 0.134578 0.029671 0.330687 0.153688 -0.028299 -0.011060 -0.517033 0.061742 -0.485344 0.438352 -0.751559 -0.001799 0.233056 -0.171105 1.033071 -0.421216 -0.009227
pronunciar 0.304819 -0.635366 -0.226559 0.545478 -0.343290 0.530250 0.018759 -0.130150 -0.211075 0.071221 0.065324 0.055178 0.225694 0.145612 -0.841235 0.126214 -0.316380 -0.282844 0.150835 0.257779 0.208809 1.102366 -0.024684 0.587262 0.142917 1.281731 0.550310 0.230752 0.108311 0.061000 -0.381526 0.159302 -0.404016 -0.414167 -0.061742 0.190486 -0.536149 -0.020278 0.121318 0.931767 -0.590779 0.226716 -0.690977 0.426805 0.696779 0.472554 -0.339631 0.180888 -0.436965 0.245805 0.108299 0.129083 -0.600435 0.000174 -0.246518 0.766948 -0.204193 -0.465347 0.891859 0.082984 -0.127136 -0.103625 0.357054 0.626939 -0.222919 -0.094506 -0.007058 -0.085434 -0.290042 -0.098204 -0.107295 -0.708983 -0.284487 0.045776 0.122373 -0.769287 0.532883 0.120496 -0.587062 0.171240 1.283377 -0.507805 0.638401 -0.489980 -0.285313 0.055171 0.534307 -0.473909 0.176435 -0.542504 -0.541539 0.139338 -1.419480 -0.517881 -0.193909 -0.341571 0.250320 0.565124 -0.001535 0.214701
loco 0.681261 0.926361 0.377940 0.002578 -0.897370 -0.596878 0.111299 0.101642 -0.605924 0.204406 0.885018 -0.184623 0.481899 -0.201068 -0.204349 -0.454523 -0.290747 -0.438220 -0.236225 0.508943 -0.077705 -0.423294 -0.117550 0.284934 0.099415 0.837257 0.908290 0.401332 -0.030809 0.579810 0.132202 0.376564 -0.226858 -0.449760 -0.447257 0.274998 0.336120 0.045015 0.184666 -0.522409 0.074915 0.385615 0.352309 -0.026467 0.218705 0.487990 -0.515383 -0.137513 -0.080481 0.036789 -0.018330 0.105523 0.528418 0.445895 0.300016 0.729060 0.807437 0.699781 1.039514 -0.582341 0.307113 0.020603 0.078987 0.446126 0.180409 0.691497 -0.186308 0.430596 0.538228 0.515121 0.049487 0.809473 0.326812 0.092650 0.176977 -0.642113 0.395388 0.340378 0.062613 1.062397 1.246529 0.561092 -0.068441 0.216655 0.159587 -0.099831 0.049820 0.125957 -0.235788 -0.263592 0.524306 0.149460 -0.375595 0.044500 0.192851 0.500775 -0.290248 -0.090365 -1.121646 -0.388829
borracho 0.138212 0.198619 0.001107 0.239797 -0.399688 -0.592217 -0.043094 -0.498624 -0.141477 0.141100 0.603425 0.255952 -0.176692 -0.016540 -0.201444 -0.159069 0.139641 -0.403488 0.210883 0.282845 -0.810095 0.216749 -0.253264 0.392142 -0.397804 0.179322 0.501422 0.013126 -0.008482 0.181876 -0.027874 0.183248 -0.125394 -0.367474 0.005366 0.041656 0.401017 -0.010285 0.800656 -0.669621 0.126318 -0.000490 -0.227952 0.276736 0.060455 0.192830 0.098515 0.634746 0.094009 -0.662327 0.019460 -0.312249 -0.146871 0.356949 0.265757 1.022617 0.429197 0.280994 0.405666 -0.175265 0.637778 0.178508 0.418327 -0.118627 0.510921 -0.384086 -0.118548 0.059204 0.329188 -0.143788 0.507176 0.209855 -0.188808 0.282575 -0.112647 -0.532569 0.089645 0.073460 0.472087 0.317189 0.308921 0.027050 0.374128 0.509188 -0.031213 -0.179267 0.529224 0.174478 -0.348434 0.494043 -0.097594 -0.337542 0.437070 0.207373 0.336921 0.496848 -0.453206 0.204460 -0.496556 0.060296
ahorrar -0.174493 0.282089 0.260945 0.406914 0.432192 0.259245 -0.191102 -0.317518 -0.441025 -0.465951 -0.301704 0.558143 -0.024779 -0.516895 -0.281889 -0.824407 0.385852 0.121419 -0.485357 -0.575704 -0.206321 0.251058 -0.359107 -0.047512 0.079164 0.318121 0.211010 -0.167610 0.248475 -0.449727 -0.323515 0.390959 0.661358 -0.266069 -0.259032 -0.410157 -0.068230 0.077993 0.342994 -0.014357 0.015920 -1.112118 -0.446490 0.487793 0.658053 0.529458 1.126295 -0.348428 0.841832 0.622095 -0.344128 -0.254684 0.055786 0.440116 -0.044077 -0.948219 0.176219 -0.080315 -0.378636 -0.085928 -0.339100 0.235597 0.002603 0.128396 0.542473 0.561044 0.282324 0.156756 -0.468977 0.020813 0.398288 0.170037 -0.316780 0.037465 0.433779 0.194451 0.465970 0.167351 0.105901 0.653837 0.802520 0.889883 0.064444 -0.371738 0.134115 -0.335497 0.129743 -0.273801 -1.054482 -0.939681 0.283604 -0.595967 0.001861 0.128856 0.008593 -0.914981 0.088532 -0.302917 0.488572 1.436444
consecuencia 0.200121 0.287095 0.317825 -0.081563 0.096254 0.437721 -0.687202 -0.070462 0.576545 -0.059339 -0.027730 -0.041926 0.160875 -0.470272 0.475983 0.131296 -0.201373 0.204537 0.189161 -0.334870 0.607536 -0.128889 -0.414100 -0.294844 0.006376 0.278576 -0.518837 -0.254327 0.097419 -0.263294 -0.360219 -0.280944 -0.064536 1.132886 -0.170068 0.823319 -0.069740 0.006866 -0.834792 -0.262479 0.435531 0.297210 -0.235899 -0.135104 -0.604253 0.595236 0.457677 -0.253091 -0.400782 -0.754825 -0.185338 0.342028 -0.008512 -0.447246 -0.023943 0.264268 -0.302863 0.412851 -0.200316 0.406596 -0.530998 0.328965 0.508670 -0.354347 0.050221 -0.139375 0.123386 -0.037818 -0.160272 0.100777 -0.219033 -0.662830 0.257973 0.228382 -0.261728 0.023025 0.424313 0.470779 0.039754 -0.140736 2.277625 0.113378 0.461444 -0.486887 0.084872 -0.268060 0.100732 0.117862 -0.025923 -0.232073 0.400592 -0.098825 0.256896 0.203729 0.320107 0.597863 -0.393500 -0.364554 0.678334 0.041314
